%YAML:1.0
my_svm: !!opencv-ml-svm
   svm_type: C_SVC
   kernel: { type:RBF, gamma:3. }
   C: 1.
   term_criteria: { epsilon:2.2204460492503131e-16, iterations:100 }
   var_all: 500
   var_count: 500
   class_count: 4
   class_labels: !!opencv-matrix
      rows: 1
      cols: 4
      dt: i
      data: [ 0, 1, 2, 3 ]
   sv_total: 20
   support_vectors:
      - [ 5.78034669e-03, 0., 0., 0., 0., 0., 5.78034669e-03, 0., 0., 0.,
          5.78034669e-03, 5.78034669e-03, 5.78034669e-03, 0., 0.,
          5.78034669e-03, 0., 0., 5.78034669e-03, 0., 0., 5.78034669e-03,
          0., 0., 1.15606934e-02, 0., 5.78034669e-03, 5.78034669e-03, 0.,
          0., 0., 0., 0., 0., 5.78034669e-03, 5.78034669e-03,
          5.78034669e-03, 5.78034669e-03, 0., 0., 5.78034669e-03, 0., 0.,
          5.78034669e-03, 0., 0., 0., 0., 0., 5.78034669e-03, 0., 0.,
          5.78034669e-03, 0., 0., 0., 0., 5.78034669e-03, 5.78034669e-03,
          5.78034669e-03, 0., 0., 5.78034669e-03, 0., 0., 5.78034669e-03,
          0., 0., 0., 0., 0., 0., 0., 0., 0., 0., 1.15606934e-02, 0., 0.,
          0., 5.78034669e-03, 0., 0., 0., 0., 0., 0., 5.78034669e-03,
          1.73410401e-02, 5.78034669e-03, 5.78034669e-03, 0., 0.,
          5.78034669e-03, 0., 0., 0., 5.78034669e-03, 0., 0.,
          1.15606934e-02, 5.78034669e-03, 0., 0., 0., 0., 1.15606934e-02,
          5.78034669e-03, 0., 1.15606934e-02, 5.78034669e-03,
          5.78034669e-03, 0., 5.78034669e-03, 0., 0., 0., 0.,
          5.78034669e-03, 5.78034669e-03, 0., 0., 0., 0., 0., 0., 0.,
          5.78034669e-03, 5.78034669e-03, 0., 0., 0., 5.78034669e-03, 0.,
          0., 5.78034669e-03, 1.15606934e-02, 0., 5.78034669e-03, 0., 0.,
          0., 0., 0., 5.78034669e-03, 0., 0., 0., 5.78034669e-03, 0., 0.,
          1.15606934e-02, 5.78034669e-03, 0., 0., 5.78034669e-03,
          5.78034669e-03, 0., 0., 0., 0., 0., 0., 5.78034669e-03, 0., 0.,
          0., 0., 5.78034669e-03, 5.78034669e-03, 0., 1.15606934e-02, 0.,
          0., 0., 5.78034669e-03, 0., 5.78034669e-03, 0., 0.,
          5.78034669e-03, 0., 0., 0., 1.15606934e-02, 0., 0., 0., 0., 0.,
          0., 0., 0., 0., 0., 5.78034669e-03, 0., 0., 1.15606934e-02, 0.,
          0., 0., 5.78034669e-03, 0., 0., 0., 5.78034669e-03, 0., 0., 0.,
          0., 0., 5.78034669e-03, 0., 5.78034669e-03, 0., 0., 0., 0., 0.,
          5.78034669e-03, 0., 0., 0., 5.78034669e-03, 0., 0.,
          5.78034669e-03, 0., 0., 0., 0., 0., 0., 1.15606934e-02, 0., 0.,
          0., 5.78034669e-03, 5.78034669e-03, 0., 0., 0., 0., 0., 0., 0.,
          0., 5.78034669e-03, 0., 0., 5.78034669e-03, 5.78034669e-03, 0.,
          0., 0., 0., 0., 0., 5.78034669e-03, 0., 0., 5.78034669e-03,
          5.78034669e-03, 0., 0., 0., 5.78034669e-03, 0., 0., 0., 0.,
          5.78034669e-03, 5.78034669e-03, 0., 0., 0., 0., 1.15606934e-02,
          0., 0., 0., 5.78034669e-03, 0., 5.78034669e-03, 5.78034669e-03,
          0., 0., 5.78034669e-03, 5.78034669e-03, 0., 0., 0., 0., 0., 0.,
          5.78034669e-03, 5.78034669e-03, 0., 0., 0., 1.15606934e-02, 0.,
          0., 0., 5.78034669e-03, 0., 0., 0., 0., 0., 5.78034669e-03, 0.,
          0., 5.78034669e-03, 0., 5.78034669e-03, 5.78034669e-03, 0., 0.,
          0., 0., 0., 0., 5.78034669e-03, 0., 5.78034669e-03, 0., 0., 0.,
          1.15606934e-02, 0., 5.78034669e-03, 0., 0., 5.78034669e-03, 0.,
          0., 0., 1.73410401e-02, 0., 5.78034669e-03, 0., 5.78034669e-03,
          0., 0., 5.78034669e-03, 0., 0., 0., 0., 5.78034669e-03, 0., 0.,
          5.78034669e-03, 5.78034669e-03, 5.78034669e-03, 0., 0., 0., 0.,
          0., 0., 5.78034669e-03, 1.15606934e-02, 0., 5.78034669e-03, 0.,
          5.78034669e-03, 0., 0., 0., 0., 0., 0., 0., 0., 0.,
          5.78034669e-03, 0., 0., 0., 0., 5.78034669e-03, 0., 0., 0.,
          5.78034669e-03, 0., 0., 0., 5.78034669e-03, 0., 0.,
          5.78034669e-03, 0., 1.73410401e-02, 0., 0., 5.78034669e-03,
          5.78034669e-03, 0., 0., 5.78034669e-03, 0., 0., 0., 0., 0., 0.,
          0., 1.15606934e-02, 0., 0., 5.78034669e-03, 0., 0., 0., 0., 0.,
          0., 0., 5.78034669e-03, 0., 0., 0., 0., 0., 0., 0., 0.,
          5.78034669e-03, 0., 0., 0., 0., 0., 0., 1.15606934e-02, 0., 0.,
          0., 5.78034669e-03, 0., 0., 0., 0., 0., 0., 0., 0.,
          5.78034669e-03, 0., 1.15606934e-02, 0., 0., 0., 5.78034669e-03,
          1.15606934e-02, 5.78034669e-03, 0., 5.78034669e-03, 0., 0.,
          5.78034669e-03, 0., 0., 0., 0., 0., 0., 0., 0., 0., 0., 0., 0.,
          0., 0., 5.78034669e-03, 5.78034669e-03, 0., 0., 0., 0., 0., 0.,
          0., 2.31213868e-02, 0., 5.78034669e-03, 1.15606934e-02,
          5.78034669e-03, 0., 5.78034669e-03, 5.78034669e-03, 0., 0., 0.,
          0. ]
      - [ 5.61797759e-03, 0., 0., 0., 0., 0., 0., 0., 0., 0.,
          5.61797759e-03, 0., 0., 0., 0., 5.61797759e-03, 0., 0., 0., 0.,
          0., 1.12359552e-02, 0., 0., 5.61797759e-03, 0., 0.,
          5.61797759e-03, 0., 5.61797759e-03, 5.61797759e-03, 0., 0., 0.,
          0., 0., 5.61797759e-03, 0., 0., 1.12359552e-02, 0.,
          5.61797759e-03, 0., 5.61797759e-03, 0., 0., 0., 0., 0.,
          5.61797759e-03, 0., 5.61797759e-03, 5.61797759e-03, 0., 0., 0.,
          0., 0., 0., 0., 0., 5.61797759e-03, 5.61797759e-03, 0., 0.,
          5.61797759e-03, 0., 0., 0., 0., 0., 0., 5.61797759e-03, 0., 0.,
          0., 1.12359552e-02, 0., 0., 0., 0., 0., 0., 0., 5.61797759e-03,
          0., 0., 5.61797759e-03, 5.61797759e-03, 0., 1.12359552e-02, 0.,
          0., 0., 0., 0., 0., 0., 0., 0., 1.12359552e-02, 0., 0., 0., 0.,
          0., 0., 1.12359552e-02, 0., 5.61797759e-03, 0., 0.,
          5.61797759e-03, 1.12359552e-02, 0., 5.61797759e-03, 0., 0.,
          5.61797759e-03, 0., 0., 1.12359552e-02, 0., 0., 0., 0.,
          5.61797759e-03, 5.61797759e-03, 1.12359552e-02, 5.61797759e-03,
          0., 0., 5.61797759e-03, 0., 0., 1.12359552e-02, 5.61797759e-03,
          0., 5.61797759e-03, 0., 0., 0., 0., 5.61797759e-03, 0., 0.,
          5.61797759e-03, 0., 5.61797759e-03, 0., 0., 1.68539323e-02,
          5.61797759e-03, 5.61797759e-03, 0., 0., 0., 1.12359552e-02,
          5.61797759e-03, 5.61797759e-03, 0., 0., 0., 5.61797759e-03, 0.,
          5.61797759e-03, 5.61797759e-03, 0., 5.61797759e-03,
          1.68539323e-02, 0., 5.61797759e-03, 0., 5.61797759e-03,
          1.12359552e-02, 5.61797759e-03, 0., 5.61797759e-03,
          5.61797759e-03, 5.61797759e-03, 5.61797759e-03, 0., 0., 0., 0.,
          0., 0., 0., 0., 0., 0., 0., 0., 0., 0., 5.61797759e-03, 0., 0.,
          0., 0., 0., 0., 0., 0., 5.61797759e-03, 0., 0., 0., 0., 0., 0.,
          0., 5.61797759e-03, 0., 0., 0., 0., 0., 0., 0., 0., 0.,
          5.61797759e-03, 0., 0., 0., 0., 5.61797759e-03, 0., 0., 0., 0.,
          0., 5.61797759e-03, 1.12359552e-02, 0., 0., 0., 0.,
          5.61797759e-03, 0., 5.61797759e-03, 5.61797759e-03, 0., 0.,
          3.93258445e-02, 0., 0., 0., 0., 0., 5.61797759e-03,
          5.61797759e-03, 0., 0., 1.12359552e-02, 0., 0., 0.,
          1.12359552e-02, 0., 0., 5.61797759e-03, 0., 0., 0., 0.,
          5.61797759e-03, 5.61797759e-03, 5.61797759e-03, 1.12359552e-02,
          0., 5.61797759e-03, 0., 0., 5.61797759e-03, 0., 5.61797759e-03,
          5.61797759e-03, 0., 0., 0., 5.61797759e-03, 0., 5.61797759e-03,
          5.61797759e-03, 0., 0., 5.61797759e-03, 0., 0., 0., 0., 0., 0.,
          5.61797759e-03, 0., 5.61797759e-03, 0., 5.61797759e-03, 0., 0.,
          0., 0., 0., 0., 0., 0., 0., 0., 0., 5.61797759e-03, 0., 0.,
          5.61797759e-03, 0., 0., 0., 0., 0., 0., 0., 5.61797759e-03, 0.,
          5.61797759e-03, 0., 5.61797759e-03, 0., 0., 0., 5.61797759e-03,
          0., 0., 0., 0., 0., 0., 0., 0., 5.61797759e-03, 0., 0., 0.,
          5.61797759e-03, 0., 0., 1.68539323e-02, 0., 0., 0., 0., 0., 0.,
          5.61797759e-03, 5.61797759e-03, 0., 5.61797759e-03, 0.,
          5.61797759e-03, 5.61797759e-03, 0., 0., 0., 5.61797759e-03, 0.,
          0., 0., 0., 0., 0., 0., 0., 0., 5.61797759e-03, 0., 0., 0., 0.,
          0., 0., 0., 0., 0., 0., 5.61797759e-03, 0., 0., 0., 0., 0., 0.,
          5.61797759e-03, 0., 0., 0., 5.61797759e-03, 1.12359552e-02, 0.,
          0., 5.61797759e-03, 0., 0., 0., 1.12359552e-02, 0.,
          5.61797759e-03, 0., 0., 5.61797759e-03, 5.61797759e-03, 0.,
          1.12359552e-02, 0., 5.61797759e-03, 1.12359552e-02, 0., 0., 0.,
          0., 0., 5.61797759e-03, 5.61797759e-03, 0., 0., 0., 0., 0.,
          5.61797759e-03, 0., 5.61797759e-03, 0., 0., 0., 0., 0., 0., 0.,
          0., 5.61797759e-03, 0., 5.61797759e-03, 0., 0., 0., 0., 0.,
          5.61797759e-03, 0., 0., 0., 0., 0., 0., 1.68539323e-02,
          5.61797759e-03, 0., 0., 5.61797759e-03, 1.12359552e-02, 0., 0.,
          5.61797759e-03, 0., 0., 1.12359552e-02, 0., 0., 0., 0., 0., 0.,
          0., 0., 0., 5.61797759e-03, 0., 5.61797759e-03, 0., 0.,
          5.61797759e-03, 0., 0., 0., 0., 0., 0., 0., 0., 5.61797759e-03,
          0., 5.61797759e-03, 0., 5.61797759e-03, 0., 5.61797759e-03, 0.,
          5.61797759e-03, 0., 0., 0. ]
      - [ 0., 0., 0., 0., 0., 0., 7.75193796e-03, 0., 0., 0.,
          1.55038759e-02, 0., 7.75193796e-03, 0., 0., 7.75193796e-03, 0.,
          0., 0., 0., 0., 0., 0., 0., 0., 0., 0., 0., 7.75193796e-03, 0.,
          0., 0., 7.75193796e-03, 0., 0., 0., 2.32558139e-02,
          7.75193796e-03, 0., 7.75193796e-03, 0., 0., 0., 0., 0., 0., 0.,
          0., 0., 1.55038759e-02, 7.75193796e-03, 0., 0., 0., 0., 0., 0.,
          7.75193796e-03, 0., 0., 0., 0., 7.75193796e-03, 0.,
          7.75193796e-03, 7.75193796e-03, 0., 0., 0., 0., 7.75193796e-03,
          0., 7.75193796e-03, 0., 0., 0., 7.75193796e-03, 0., 0., 0., 0.,
          7.75193796e-03, 7.75193796e-03, 0., 0., 0., 7.75193796e-03, 0.,
          7.75193796e-03, 0., 7.75193796e-03, 0., 0., 0., 0.,
          7.75193796e-03, 0., 0., 0., 0., 7.75193796e-03, 0., 0., 0., 0.,
          7.75193796e-03, 0., 7.75193796e-03, 7.75193796e-03,
          7.75193796e-03, 0., 7.75193796e-03, 0., 0., 0., 7.75193796e-03,
          0., 0., 7.75193796e-03, 0., 0., 1.55038759e-02, 0., 0., 0., 0.,
          7.75193796e-03, 0., 7.75193796e-03, 0., 0., 0., 7.75193796e-03,
          0., 0., 0., 0., 0., 7.75193796e-03, 0., 0., 0., 0., 0., 0., 0.,
          7.75193796e-03, 0., 0., 0., 7.75193796e-03, 1.55038759e-02, 0.,
          7.75193796e-03, 0., 0., 0., 0., 7.75193796e-03, 0., 0., 0., 0.,
          7.75193796e-03, 0., 7.75193796e-03, 0., 0., 7.75193796e-03,
          4.65116277e-02, 0., 0., 0., 0., 0., 7.75193796e-03, 0.,
          7.75193796e-03, 0., 0., 0., 0., 0., 0., 0., 0., 0., 0., 0., 0.,
          0., 0., 0., 0., 0., 0., 0., 0., 0., 0., 0., 0., 7.75193796e-03,
          0., 0., 0., 0., 1.55038759e-02, 0., 0., 0., 0., 0., 0., 0., 0.,
          0., 0., 0., 0., 0., 0., 0., 0., 0., 0., 0., 7.75193796e-03, 0.,
          0., 0., 0., 0., 0., 7.75193796e-03, 7.75193796e-03, 0., 0., 0.,
          7.75193796e-03, 0., 0., 0., 0., 0., 7.75193796e-03, 0., 0., 0.,
          0., 0., 1.55038759e-02, 0., 0., 0., 7.75193796e-03, 0., 0., 0.,
          7.75193796e-03, 0., 0., 7.75193796e-03, 0., 0., 0., 0., 0.,
          7.75193796e-03, 7.75193796e-03, 0., 0., 2.32558139e-02,
          1.55038759e-02, 0., 0., 0., 7.75193796e-03, 7.75193796e-03,
          7.75193796e-03, 0., 7.75193796e-03, 7.75193796e-03, 0.,
          7.75193796e-03, 0., 0., 0., 0., 0., 0., 0., 0., 0., 0., 0., 0.,
          1.55038759e-02, 0., 0., 0., 0., 7.75193796e-03, 0., 0., 0., 0.,
          0., 0., 0., 0., 7.75193796e-03, 0., 0., 7.75193796e-03, 0., 0.,
          0., 0., 0., 0., 0., 0., 0., 7.75193796e-03, 0., 7.75193796e-03,
          0., 0., 0., 0., 0., 0., 7.75193796e-03, 0., 7.75193796e-03, 0.,
          0., 0., 1.55038759e-02, 0., 0., 0., 7.75193796e-03, 0.,
          1.55038759e-02, 7.75193796e-03, 0., 0., 7.75193796e-03, 0.,
          7.75193796e-03, 7.75193796e-03, 0., 0., 0., 0., 7.75193796e-03,
          0., 0., 0., 0., 0., 0., 0., 0., 0., 0., 0., 7.75193796e-03, 0.,
          7.75193796e-03, 0., 0., 0., 0., 0., 0., 0., 7.75193796e-03, 0.,
          0., 7.75193796e-03, 0., 0., 0., 0., 7.75193796e-03, 0., 0., 0.,
          0., 0., 0., 0., 0., 0., 0., 0., 7.75193796e-03, 0., 0., 0.,
          7.75193796e-03, 0., 0., 0., 0., 0., 0., 0., 0., 0., 0., 0., 0.,
          7.75193796e-03, 0., 0., 0., 7.75193796e-03, 0., 7.75193796e-03,
          0., 0., 0., 0., 0., 7.75193796e-03, 0., 0., 0., 0., 0., 0., 0.,
          0., 0., 0., 0., 0., 0., 7.75193796e-03, 0., 0., 0.,
          7.75193796e-03, 0., 0., 0., 0., 0., 0., 0., 7.75193796e-03, 0.,
          0., 7.75193796e-03, 1.55038759e-02, 0., 0., 0., 0., 0.,
          1.55038759e-02, 0., 0., 0., 7.75193796e-03, 0., 0., 0., 0., 0.,
          0., 0., 0., 0., 0., 0., 7.75193796e-03, 0., 0., 0., 0., 0., 0.,
          0., 7.75193796e-03, 0., 0., 0., 7.75193796e-03, 0., 0.,
          1.55038759e-02, 0., 0., 0., 0. ]
      - [ 0., 0., 7.35294120e-03, 7.35294120e-03, 0., 0., 0., 0., 0.,
          7.35294120e-03, 7.35294120e-03, 0., 7.35294120e-03, 0., 0.,
          7.35294120e-03, 0., 0., 0., 7.35294120e-03, 0., 0., 0., 0., 0.,
          0., 0., 0., 0., 0., 0., 0., 7.35294120e-03, 1.47058824e-02, 0.,
          7.35294120e-03, 0., 0., 7.35294120e-03, 7.35294120e-03,
          7.35294120e-03, 0., 0., 7.35294120e-03, 0., 0., 0., 0.,
          2.20588241e-02, 7.35294120e-03, 0., 0., 0., 0., 1.47058824e-02,
          2.94117648e-02, 0., 7.35294120e-03, 0., 0., 0., 0.,
          7.35294120e-03, 0., 0., 0., 0., 7.35294120e-03, 0.,
          7.35294120e-03, 7.35294120e-03, 0., 0., 0., 0., 0., 0., 0., 0.,
          0., 1.47058824e-02, 0., 0., 7.35294120e-03, 0., 0., 0., 0.,
          2.20588241e-02, 0., 7.35294120e-03, 0., 0., 0., 7.35294120e-03,
          0., 0., 0., 0., 0., 7.35294120e-03, 0., 0., 0., 7.35294120e-03,
          7.35294120e-03, 1.47058824e-02, 7.35294120e-03, 7.35294120e-03,
          0., 0., 0., 0., 0., 7.35294120e-03, 7.35294120e-03, 0., 0., 0.,
          7.35294120e-03, 0., 7.35294120e-03, 7.35294120e-03,
          7.35294120e-03, 7.35294120e-03, 0., 0., 7.35294120e-03,
          7.35294120e-03, 0., 0., 0., 0., 0., 0., 7.35294120e-03,
          7.35294120e-03, 0., 7.35294120e-03, 0., 0., 0., 1.47058824e-02,
          0., 7.35294120e-03, 0., 0., 0., 0., 0., 7.35294120e-03, 0., 0.,
          0., 0., 0., 0., 0., 0., 7.35294120e-03, 0., 0., 0., 0., 0., 0.,
          0., 0., 0., 0., 0., 0., 0., 0., 7.35294120e-03, 0., 0.,
          7.35294120e-03, 0., 0., 0., 0., 0., 0., 7.35294120e-03, 0.,
          7.35294120e-03, 0., 0., 0., 0., 0., 7.35294120e-03,
          7.35294120e-03, 0., 0., 0., 0., 0., 0., 0., 0., 0., 0.,
          7.35294120e-03, 0., 0., 2.20588241e-02, 0., 0., 0., 0., 0., 0.,
          7.35294120e-03, 0., 0., 0., 0., 0., 0., 7.35294120e-03, 0., 0.,
          0., 0., 0., 7.35294120e-03, 0., 0., 0., 0., 0., 7.35294120e-03,
          0., 0., 0., 0., 0., 0., 0., 7.35294120e-03, 7.35294120e-03, 0.,
          0., 0., 0., 0., 0., 7.35294120e-03, 7.35294120e-03, 0., 0., 0.,
          0., 0., 0., 0., 0., 0., 0., 0., 7.35294120e-03, 0., 0., 0.,
          7.35294120e-03, 0., 0., 7.35294120e-03, 7.35294120e-03, 0., 0.,
          7.35294120e-03, 0., 0., 0., 7.35294120e-03, 0., 7.35294120e-03,
          0., 0., 1.47058824e-02, 0., 0., 0., 0., 0., 0., 0., 0., 0., 0.,
          7.35294120e-03, 0., 0., 7.35294120e-03, 7.35294120e-03, 0., 0.,
          0., 0., 7.35294120e-03, 7.35294120e-03, 0., 7.35294120e-03, 0.,
          0., 0., 0., 0., 0., 1.47058824e-02, 0., 0., 0., 0., 0., 0., 0.,
          0., 0., 7.35294120e-03, 7.35294120e-03, 0., 0., 7.35294120e-03,
          0., 0., 7.35294120e-03, 0., 0., 7.35294120e-03, 0., 0.,
          7.35294120e-03, 0., 0., 0., 0., 7.35294120e-03, 0., 0., 0.,
          7.35294120e-03, 0., 7.35294120e-03, 0., 0., 0., 0., 0., 0., 0.,
          7.35294120e-03, 0., 0., 7.35294120e-03, 0., 0., 0., 0., 0., 0.,
          7.35294120e-03, 0., 0., 0., 0., 0., 0., 7.35294120e-03, 0., 0.,
          0., 0., 0., 0., 0., 0., 0., 0., 7.35294120e-03, 0.,
          7.35294120e-03, 0., 0., 7.35294120e-03, 0., 0., 0., 0., 0., 0.,
          0., 0., 7.35294120e-03, 0., 7.35294120e-03, 7.35294120e-03, 0.,
          0., 0., 7.35294120e-03, 0., 0., 0., 0., 7.35294120e-03, 0.,
          7.35294120e-03, 0., 7.35294120e-03, 0., 0., 0., 0.,
          7.35294120e-03, 0., 7.35294120e-03, 7.35294120e-03, 0.,
          7.35294120e-03, 7.35294120e-03, 0., 0., 0., 0., 0., 0., 0., 0.,
          0., 0., 0., 0., 0., 0., 0., 0., 7.35294120e-03, 0., 0., 0., 0.,
          0., 0., 7.35294120e-03, 0., 0., 7.35294120e-03, 7.35294120e-03,
          0., 0., 0., 0., 0., 0., 0., 0., 0., 7.35294120e-03, 0., 0., 0.,
          0., 0., 0., 0., 0., 0., 0., 0., 1.47058824e-02, 7.35294120e-03,
          0., 0., 0., 0., 7.35294120e-03, 0., 0., 0., 0., 0., 0., 0., 0.,
          0., 0., 7.35294120e-03, 0., 0., 0., 0., 7.35294120e-03, 0., 0.,
          0., 0. ]
      - [ 0., 0., 0., 6.53594779e-03, 1.30718956e-02, 0., 0., 0., 0.,
          6.53594779e-03, 6.53594779e-03, 0., 1.30718956e-02, 0.,
          6.53594779e-03, 6.53594779e-03, 0., 0., 0., 0., 0.,
          6.53594779e-03, 6.53594779e-03, 0., 0., 0., 0., 0., 0., 0.,
          6.53594779e-03, 0., 0., 6.53594779e-03, 6.53594779e-03,
          6.53594779e-03, 6.53594779e-03, 6.53594779e-03, 0., 0.,
          1.30718956e-02, 6.53594779e-03, 6.53594779e-03, 0., 0., 0., 0.,
          0., 0., 0., 0., 0., 0., 0., 6.53594779e-03, 1.96078438e-02, 0.,
          6.53594779e-03, 0., 0., 0., 0., 6.53594779e-03, 0., 0.,
          6.53594779e-03, 0., 0., 0., 0., 0., 0., 0., 0., 0., 0., 0., 0.,
          0., 1.96078438e-02, 0., 0., 0., 6.53594779e-03, 0., 0., 0., 0.,
          6.53594779e-03, 6.53594779e-03, 1.96078438e-02, 6.53594779e-03,
          0., 0., 0., 1.30718956e-02, 0., 0., 0., 0., 1.30718956e-02,
          6.53594779e-03, 0., 0., 0., 6.53594779e-03, 6.53594779e-03,
          2.61437912e-02, 6.53594779e-03, 6.53594779e-03, 0., 0., 0., 0.,
          0., 0., 6.53594779e-03, 0., 6.53594779e-03, 0., 0., 0., 0., 0.,
          0., 0., 0., 0., 6.53594779e-03, 0., 0., 0., 0., 0.,
          6.53594779e-03, 0., 6.53594779e-03, 0., 1.30718956e-02, 0.,
          6.53594779e-03, 0., 6.53594779e-03, 0., 6.53594779e-03, 0., 0.,
          0., 6.53594779e-03, 0., 0., 0., 0., 0., 0., 0., 6.53594779e-03,
          0., 6.53594779e-03, 0., 6.53594779e-03, 0., 0., 0., 0., 0.,
          6.53594779e-03, 0., 0., 1.30718956e-02, 0., 1.30718956e-02,
          6.53594779e-03, 0., 0., 0., 6.53594779e-03, 6.53594779e-03, 0.,
          0., 0., 6.53594779e-03, 1.30718956e-02, 0., 0., 0., 0.,
          6.53594779e-03, 0., 0., 0., 0., 6.53594779e-03, 6.53594779e-03,
          0., 6.53594779e-03, 0., 0., 0., 1.30718956e-02, 0., 0., 0., 0.,
          0., 0., 0., 0., 0., 0., 0., 0., 0., 6.53594779e-03, 0.,
          6.53594779e-03, 0., 0., 0., 0., 0., 1.30718956e-02, 0., 0., 0.,
          6.53594779e-03, 6.53594779e-03, 6.53594779e-03, 0., 0., 0., 0.,
          0., 0., 0., 0., 6.53594779e-03, 0., 0., 0., 0., 0., 0.,
          6.53594779e-03, 0., 0., 0., 0., 0., 6.53594779e-03, 0.,
          6.53594779e-03, 0., 6.53594779e-03, 0., 6.53594779e-03, 0., 0.,
          0., 0., 6.53594779e-03, 0., 6.53594779e-03, 0., 0., 0.,
          6.53594779e-03, 6.53594779e-03, 0., 0., 0., 0., 0., 0.,
          6.53594779e-03, 6.53594779e-03, 0., 6.53594779e-03, 0., 0., 0.,
          6.53594779e-03, 0., 0., 0., 0., 0., 0., 0., 0., 0., 0., 0.,
          6.53594779e-03, 0., 0., 6.53594779e-03, 6.53594779e-03, 0., 0.,
          0., 0., 0., 2.61437912e-02, 0., 6.53594779e-03, 0., 0.,
          1.30718956e-02, 1.30718956e-02, 0., 0., 0., 0., 0., 0., 0., 0.,
          0., 0., 0., 0., 0., 0., 0., 0., 0., 0., 0., 0., 0., 0.,
          6.53594779e-03, 0., 0., 0., 0., 0., 0., 0., 6.53594779e-03, 0.,
          0., 0., 6.53594779e-03, 1.30718956e-02, 0., 0., 0., 0., 0., 0.,
          0., 0., 6.53594779e-03, 0., 0., 0., 0., 0., 0., 0.,
          6.53594779e-03, 0., 6.53594779e-03, 0., 6.53594779e-03, 0.,
          6.53594779e-03, 0., 0., 0., 0., 0., 0., 0., 0., 0., 0.,
          6.53594779e-03, 0., 0., 0., 0., 0., 0., 0., 6.53594779e-03, 0.,
          0., 6.53594779e-03, 0., 0., 0., 6.53594779e-03, 0., 0., 0., 0.,
          0., 0., 0., 0., 6.53594779e-03, 0., 6.53594779e-03, 0., 0., 0.,
          6.53594779e-03, 0., 6.53594779e-03, 6.53594779e-03, 0., 0., 0.,
          0., 0., 0., 6.53594779e-03, 0., 0., 6.53594779e-03, 0., 0., 0.,
          0., 0., 0., 0., 0., 0., 0., 0., 0., 0., 6.53594779e-03, 0., 0.,
          0., 0., 0., 0., 0., 0., 0., 0., 1.30718956e-02, 0., 0.,
          6.53594779e-03, 6.53594779e-03, 0., 0., 1.30718956e-02, 0., 0.,
          0., 6.53594779e-03, 0., 0., 6.53594779e-03, 6.53594779e-03, 0.,
          0., 0., 6.53594779e-03, 0., 0., 0., 0., 0., 0., 6.53594779e-03,
          0., 0., 6.53594779e-03, 0., 0., 1.30718956e-02, 6.53594779e-03,
          0., 0., 0., 0., 0., 0., 0., 6.53594779e-03, 0., 0., 0., 0., 0.,
          0., 0., 0., 0., 0., 0. ]
      - [ 6.41025649e-03, 0., 6.41025649e-03, 0., 0., 0., 0.,
          6.41025649e-03, 0., 0., 0., 1.28205130e-02, 0., 1.28205130e-02,
          1.28205130e-02, 6.41025649e-03, 0., 0., 0., 1.28205130e-02, 0.,
          0., 0., 0., 1.28205130e-02, 0., 6.41025649e-03, 0., 0., 0.,
          6.41025649e-03, 0., 0., 6.41025649e-03, 0., 6.41025649e-03,
          6.41025649e-03, 0., 6.41025649e-03, 0., 0., 0., 0.,
          1.92307699e-02, 0., 6.41025649e-03, 0., 6.41025649e-03, 0., 0.,
          1.92307699e-02, 6.41025649e-03, 0., 6.41025649e-03, 0., 0., 0.,
          0., 0., 0., 0., 0., 0., 0., 0., 0., 1.28205130e-02, 0., 0., 0.,
          0., 6.41025649e-03, 0., 0., 6.41025649e-03, 0., 0., 0., 0.,
          6.41025649e-03, 0., 0., 0., 0., 0., 0., 0., 0., 6.41025649e-03,
          0., 6.41025649e-03, 0., 0., 0., 6.41025649e-03, 0.,
          6.41025649e-03, 0., 0., 0., 0., 1.28205130e-02, 0., 0., 0., 0.,
          0., 0., 0., 0., 0., 0., 0., 0., 0., 0., 0., 0., 0., 0., 0., 0.,
          6.41025649e-03, 0., 0., 0., 6.41025649e-03, 0., 0., 0.,
          6.41025649e-03, 1.92307699e-02, 0., 6.41025649e-03,
          6.41025649e-03, 0., 1.28205130e-02, 0., 0., 0., 0.,
          6.41025649e-03, 0., 0., 6.41025649e-03, 6.41025649e-03,
          6.41025649e-03, 0., 0., 6.41025649e-03, 0., 6.41025649e-03, 0.,
          0., 0., 0., 0., 0., 0., 0., 0., 0., 6.41025649e-03,
          1.28205130e-02, 0., 6.41025649e-03, 0., 6.41025649e-03, 0.,
          6.41025649e-03, 1.28205130e-02, 0., 6.41025649e-03, 0., 0., 0.,
          6.41025649e-03, 0., 0., 6.41025649e-03, 0., 0., 0., 0.,
          1.28205130e-02, 6.41025649e-03, 0., 0., 0., 6.41025649e-03,
          1.92307699e-02, 0., 0., 6.41025649e-03, 6.41025649e-03, 0., 0.,
          0., 6.41025649e-03, 6.41025649e-03, 0., 6.41025649e-03, 0., 0.,
          0., 0., 0., 0., 6.41025649e-03, 0., 6.41025649e-03, 0., 0., 0.,
          0., 6.41025649e-03, 0., 0., 0., 0., 0., 0., 0., 0.,
          6.41025649e-03, 6.41025649e-03, 0., 0., 0., 0., 0., 0., 0.,
          1.28205130e-02, 0., 0., 0., 0., 0., 0., 0., 1.28205130e-02, 0.,
          0., 0., 0., 0., 0., 6.41025649e-03, 0., 1.28205130e-02, 0., 0.,
          0., 0., 0., 0., 0., 0., 0., 0., 0., 0., 0., 0., 0., 0.,
          6.41025649e-03, 0., 0., 0., 0., 0., 1.28205130e-02, 0., 0., 0.,
          0., 0., 6.41025649e-03, 0., 0., 0., 0., 0., 0., 0., 0., 0., 0.,
          0., 6.41025649e-03, 0., 0., 0., 0., 0., 0., 6.41025649e-03, 0.,
          0., 0., 0., 0., 0., 0., 0., 6.41025649e-03, 0., 0.,
          6.41025649e-03, 0., 0., 0., 6.41025649e-03, 6.41025649e-03, 0.,
          0., 6.41025649e-03, 0., 0., 0., 0., 6.41025649e-03, 0., 0., 0.,
          6.41025649e-03, 6.41025649e-03, 0., 0., 0., 0., 0., 0.,
          6.41025649e-03, 0., 0., 6.41025649e-03, 6.41025649e-03,
          6.41025649e-03, 0., 6.41025649e-03, 6.41025649e-03,
          6.41025649e-03, 6.41025649e-03, 1.28205130e-02, 0.,
          6.41025649e-03, 0., 1.28205130e-02, 0., 0., 0., 0., 0.,
          6.41025649e-03, 6.41025649e-03, 0., 0., 0., 0., 0., 0.,
          6.41025649e-03, 0., 0., 0., 0., 0., 0., 0., 0., 6.41025649e-03,
          0., 0., 0., 0., 6.41025649e-03, 0., 6.41025649e-03, 0., 0., 0.,
          1.28205130e-02, 0., 0., 0., 0., 6.41025649e-03, 0.,
          1.28205130e-02, 0., 1.28205130e-02, 0., 1.28205130e-02, 0., 0.,
          0., 6.41025649e-03, 6.41025649e-03, 0., 0., 6.41025649e-03, 0.,
          0., 0., 6.41025649e-03, 6.41025649e-03, 0., 0., 0., 0., 0., 0.,
          0., 0., 0., 0., 6.41025649e-03, 0., 1.28205130e-02, 0., 0., 0.,
          0., 0., 0., 0., 1.28205130e-02, 0., 0., 0., 0., 0., 0., 0., 0.,
          6.41025649e-03, 0., 0., 0., 0., 0., 0., 0., 6.41025649e-03, 0.,
          0., 0., 0., 0., 0., 0., 0., 0., 0., 0., 0., 0., 6.41025649e-03,
          0., 0., 0., 0., 6.41025649e-03, 0., 0., 0., 0., 0., 0., 0., 0.,
          6.41025649e-03, 0., 6.41025649e-03, 6.41025649e-03, 0., 0., 0.,
          6.41025649e-03, 0., 0., 0., 0., 6.41025649e-03, 0., 0., 0., 0.,
          6.41025649e-03, 0., 6.41025649e-03, 0., 0., 0., 0., 0.,
          6.41025649e-03 ]
      - [ 0., 0., 0., 0., 0., 0., 0., 0., 0., 8.54700897e-03, 0., 0., 0.,
          8.54700897e-03, 8.54700897e-03, 0., 8.54700897e-03,
          8.54700897e-03, 0., 8.54700897e-03, 0., 0., 0., 0., 0., 0.,
          8.54700897e-03, 0., 8.54700897e-03, 8.54700897e-03, 0., 0., 0.,
          2.56410278e-02, 8.54700897e-03, 0., 0., 0., 8.54700897e-03, 0.,
          0., 8.54700897e-03, 0., 1.70940179e-02, 0., 8.54700897e-03, 0.,
          0., 0., 0., 0., 0., 0., 0., 0., 0., 0., 0., 0., 1.70940179e-02,
          0., 0., 0., 0., 0., 0., 0., 8.54700897e-03, 0., 0.,
          8.54700897e-03, 0., 0., 0., 8.54700897e-03, 8.54700897e-03, 0.,
          0., 0., 0., 1.70940179e-02, 0., 0., 0., 8.54700897e-03, 0., 0.,
          0., 8.54700897e-03, 8.54700897e-03, 0., 0., 0., 0.,
          8.54700897e-03, 0., 8.54700897e-03, 0., 0., 0., 0., 0., 0., 0.,
          8.54700897e-03, 0., 1.70940179e-02, 0., 0., 0., 0., 0., 0., 0.,
          0., 0., 0., 0., 0., 8.54700897e-03, 1.70940179e-02, 0.,
          1.70940179e-02, 0., 0., 0., 8.54700897e-03, 0., 0., 0.,
          8.54700897e-03, 0., 0., 0., 0., 0., 8.54700897e-03, 0., 0., 0.,
          0., 8.54700897e-03, 0., 0., 8.54700897e-03, 0., 0.,
          1.70940179e-02, 0., 0., 0., 0., 0., 0., 0., 8.54700897e-03, 0.,
          0., 8.54700897e-03, 0., 0., 0., 0., 0., 0., 8.54700897e-03,
          8.54700897e-03, 0., 0., 0., 0., 0., 0., 0., 0., 0., 0., 0., 0.,
          1.70940179e-02, 0., 0., 0., 0., 0., 0., 0., 8.54700897e-03, 0.,
          0., 8.54700897e-03, 0., 0., 0., 8.54700897e-03, 0., 0., 0., 0.,
          0., 0., 0., 0., 0., 0., 0., 0., 0., 0., 0., 0., 8.54700897e-03,
          0., 0., 0., 8.54700897e-03, 0., 0., 8.54700897e-03,
          1.70940179e-02, 0., 0., 0., 8.54700897e-03, 8.54700897e-03, 0.,
          0., 0., 0., 0., 0., 0., 8.54700897e-03, 8.54700897e-03, 0., 0.,
          8.54700897e-03, 0., 8.54700897e-03, 0., 0., 1.70940179e-02, 0.,
          0., 0., 0., 0., 0., 0., 1.70940179e-02, 8.54700897e-03, 0., 0.,
          0., 0., 0., 0., 0., 0., 0., 0., 0., 0., 8.54700897e-03, 0., 0.,
          0., 0., 0., 0., 0., 0., 0., 8.54700897e-03, 0., 0., 0., 0.,
          8.54700897e-03, 0., 0., 0., 0., 0., 0., 1.70940179e-02,
          8.54700897e-03, 1.70940179e-02, 0., 0., 0., 0., 0., 0., 0.,
          8.54700897e-03, 0., 0., 8.54700897e-03, 8.54700897e-03, 0., 0.,
          0., 0., 8.54700897e-03, 0., 0., 0., 0., 0., 0., 0., 0., 0., 0.,
          0., 0., 0., 0., 0., 0., 0., 0., 0., 0., 0., 0., 0., 0., 0., 0.,
          0., 0., 8.54700897e-03, 0., 0., 0., 0., 0., 0., 8.54700897e-03,
          0., 0., 0., 0., 0., 0., 0., 0., 2.56410278e-02, 0., 0., 0., 0.,
          0., 1.70940179e-02, 0., 8.54700897e-03, 0., 0., 0., 0., 0., 0.,
          0., 0., 0., 0., 0., 0., 0., 8.54700897e-03, 0., 8.54700897e-03,
          0., 0., 0., 0., 0., 0., 1.70940179e-02, 0., 0., 0., 0.,
          8.54700897e-03, 0., 0., 0., 0., 0., 0., 0., 0., 0.,
          1.70940179e-02, 0., 0., 0., 0., 8.54700897e-03, 0., 0., 0., 0.,
          0., 0., 0., 0., 0., 0., 0., 0., 0., 8.54700897e-03, 0., 0., 0.,
          0., 0., 0., 0., 0., 8.54700897e-03, 0., 0., 0., 0., 0.,
          1.70940179e-02, 0., 0., 0., 0., 8.54700897e-03, 0., 0., 0., 0.,
          0., 0., 0., 0., 0., 8.54700897e-03, 0., 8.54700897e-03, 0., 0.,
          0., 0., 0., 8.54700897e-03, 0., 0., 0., 0., 0., 0., 0., 0., 0.,
          0., 0., 0., 0., 0., 0., 0., 0., 8.54700897e-03, 0., 0., 0., 0.,
          8.54700897e-03, 0., 8.54700897e-03, 0., 0., 0., 0., 0., 0.,
          1.70940179e-02, 0., 0., 0., 0., 0., 0., 0., 8.54700897e-03, 0.,
          0., 8.54700897e-03, 8.54700897e-03, 0., 0., 1.70940179e-02 ]
      - [ 0., 0., 0., 0., 0., 0., 0., 5.98802418e-03, 0., 0., 0., 0., 0.,
          0., 5.98802418e-03, 0., 0., 0., 0., 0., 0., 0., 0.,
          5.98802418e-03, 0., 0., 0., 0., 0., 0., 5.98802418e-03, 0., 0.,
          5.98802418e-03, 0., 0., 0., 0., 5.98802418e-03, 0., 0., 0., 0.,
          1.79640725e-02, 0., 0., 5.98802418e-03, 5.98802418e-03, 0., 0.,
          0., 0., 0., 0., 1.19760484e-02, 0., 0., 0., 0., 2.39520967e-02,
          0., 0., 0., 5.98802418e-03, 0., 0., 0., 0., 5.98802418e-03, 0.,
          1.19760484e-02, 5.98802418e-03, 0., 0., 0., 0., 1.19760484e-02,
          0., 0., 1.79640725e-02, 1.19760484e-02, 0., 0., 0.,
          5.98802418e-03, 0., 0., 0., 0., 5.98802418e-03, 0., 0., 0., 0.,
          5.98802418e-03, 0., 5.98802418e-03, 0., 0., 0., 0.,
          1.19760484e-02, 0., 5.98802418e-03, 0., 0., 1.79640725e-02, 0.,
          5.98802418e-03, 0., 0., 0., 0., 5.98802418e-03, 0., 0., 0., 0.,
          0., 5.98802418e-03, 5.98802418e-03, 0., 5.98802418e-03,
          5.98802418e-03, 0., 0., 5.98802418e-03, 0., 0., 0.,
          1.19760484e-02, 0., 0., 0., 1.19760484e-02, 5.98802418e-03,
          5.98802418e-03, 5.98802418e-03, 0., 0., 0., 0., 0., 0., 0., 0.,
          0., 0., 0., 0., 0., 0., 5.98802418e-03, 0., 0., 0., 0., 0., 0.,
          0., 5.98802418e-03, 0., 5.98802418e-03, 5.98802418e-03, 0., 0.,
          0., 0., 0., 0., 1.19760484e-02, 0., 1.19760484e-02, 0., 0., 0.,
          1.19760484e-02, 0., 0., 1.19760484e-02, 0., 0., 0., 0., 0., 0.,
          0., 0., 0., 5.98802418e-03, 1.19760484e-02, 0., 0., 0.,
          5.98802418e-03, 0., 0., 5.98802418e-03, 0., 0., 0.,
          5.98802418e-03, 0., 0., 0., 0., 0., 0., 0., 0., 5.98802418e-03,
          5.98802418e-03, 0., 0., 0., 0., 0., 0., 5.98802418e-03,
          5.98802418e-03, 0., 0., 0., 1.19760484e-02, 0., 5.98802418e-03,
          0., 0., 0., 0., 1.19760484e-02, 5.98802418e-03, 5.98802418e-03,
          0., 5.98802418e-03, 0., 5.98802418e-03, 0., 0., 0., 0.,
          1.19760484e-02, 0., 0., 1.19760484e-02, 5.98802418e-03, 0., 0.,
          5.98802418e-03, 0., 5.98802418e-03, 0., 0., 0., 0., 0., 0.,
          5.98802418e-03, 0., 5.98802418e-03, 0., 0., 0., 0.,
          5.98802418e-03, 0., 0., 0., 5.98802418e-03, 0., 0., 0., 0.,
          5.98802418e-03, 0., 0., 0., 0., 0., 5.98802418e-03, 0., 0.,
          5.98802418e-03, 0., 0., 5.98802418e-03, 1.19760484e-02,
          5.98802418e-03, 0., 0., 0., 5.98802418e-03, 0., 1.19760484e-02,
          0., 0., 5.98802418e-03, 0., 5.98802418e-03, 0., 0., 0., 0., 0.,
          0., 0., 0., 5.98802418e-03, 0., 0., 0., 0., 0., 0.,
          5.98802418e-03, 5.98802418e-03, 0., 0., 0., 0., 5.98802418e-03,
          5.98802418e-03, 0., 5.98802418e-03, 0., 0., 0., 0., 0., 0., 0.,
          0., 0., 5.98802418e-03, 0., 0., 0., 5.98802418e-03,
          5.98802418e-03, 5.98802418e-03, 5.98802418e-03, 0.,
          5.98802418e-03, 0., 1.19760484e-02, 1.79640725e-02,
          5.98802418e-03, 0., 0., 1.19760484e-02, 0., 0., 0., 0., 0., 0.,
          0., 0., 0., 0., 0., 0., 5.98802418e-03, 0., 0., 0.,
          5.98802418e-03, 0., 0., 0., 0., 0., 0., 5.98802418e-03, 0., 0.,
          0., 0., 0., 0., 5.98802418e-03, 0., 0., 0., 1.19760484e-02, 0.,
          0., 0., 0., 5.98802418e-03, 0., 5.98802418e-03, 5.98802418e-03,
          0., 0., 5.98802418e-03, 5.98802418e-03, 0., 0., 0.,
          5.98802418e-03, 5.98802418e-03, 0., 5.98802418e-03, 0., 0., 0.,
          0., 0., 5.98802418e-03, 0., 0., 0., 0., 0., 0., 0.,
          1.19760484e-02, 0., 5.98802418e-03, 0., 5.98802418e-03, 0., 0.,
          0., 0., 0., 0., 0., 1.19760484e-02, 0., 0., 0., 1.19760484e-02,
          1.19760484e-02, 0., 0., 0., 0., 0., 5.98802418e-03, 0., 0., 0.,
          0., 0., 5.98802418e-03, 0., 0., 0., 0., 0., 0., 0.,
          5.98802418e-03, 0., 5.98802418e-03, 0., 0., 5.98802418e-03, 0.,
          0., 0., 0., 0., 5.98802418e-03, 5.98802418e-03, 0., 0.,
          5.98802418e-03, 5.98802418e-03, 0., 0., 0., 0., 0., 0.,
          5.98802418e-03, 0., 0., 0., 0., 0., 1.19760484e-02, 0., 0.,
          5.98802418e-03, 0., 0., 0., 0., 0., 0., 5.98802418e-03, 0., 0.,
          0., 0., 0., 5.98802418e-03 ]
      - [ 0., 6.36942685e-03, 0., 6.36942685e-03, 6.36942685e-03, 0., 0.,
          0., 0., 0., 0., 0., 0., 6.36942685e-03, 0., 6.36942685e-03,
          1.27388537e-02, 6.36942685e-03, 6.36942685e-03, 0., 0., 0., 0.,
          0., 6.36942685e-03, 0., 0., 6.36942685e-03, 0., 0., 0., 0., 0.,
          2.54777074e-02, 0., 0., 0., 0., 0., 0., 0., 0., 0.,
          6.36942685e-03, 0., 0., 0., 0., 0., 0., 0., 0., 6.36942685e-03,
          0., 1.91082805e-02, 0., 0., 0., 0., 0., 0., 0., 0., 0.,
          1.27388537e-02, 0., 1.91082805e-02, 0., 0., 0., 0., 0., 0., 0.,
          0., 0., 1.27388537e-02, 0., 6.36942685e-03, 0., 6.36942685e-03,
          0., 0., 0., 0., 6.36942685e-03, 6.36942685e-03, 0.,
          1.27388537e-02, 6.36942685e-03, 6.36942685e-03, 0., 0., 0., 0.,
          0., 6.36942685e-03, 1.27388537e-02, 0., 0., 0., 6.36942685e-03,
          0., 0., 6.36942685e-03, 0., 6.36942685e-03, 6.36942685e-03,
          1.27388537e-02, 0., 0., 6.36942685e-03, 6.36942685e-03,
          6.36942685e-03, 6.36942685e-03, 0., 0., 1.27388537e-02, 0.,
          6.36942685e-03, 6.36942685e-03, 1.27388537e-02, 0., 0.,
          6.36942685e-03, 0., 0., 6.36942685e-03, 0., 0., 6.36942685e-03,
          1.27388537e-02, 0., 6.36942685e-03, 0., 0., 6.36942685e-03, 0.,
          0., 0., 0., 0., 0., 6.36942685e-03, 6.36942685e-03, 0., 0.,
          1.27388537e-02, 0., 6.36942685e-03, 6.36942685e-03, 0.,
          6.36942685e-03, 0., 2.54777074e-02, 0., 6.36942685e-03, 0., 0.,
          0., 6.36942685e-03, 0., 0., 0., 0., 0., 0., 6.36942685e-03, 0.,
          6.36942685e-03, 0., 0., 0., 0., 0., 0., 0., 0., 0.,
          6.36942685e-03, 1.27388537e-02, 6.36942685e-03, 0., 0.,
          1.27388537e-02, 6.36942685e-03, 0., 0., 0., 6.36942685e-03,
          6.36942685e-03, 0., 0., 0., 0., 0., 0., 1.27388537e-02, 0., 0.,
          0., 0., 0., 0., 0., 0., 0., 0., 0., 0., 0., 0., 6.36942685e-03,
          0., 0., 6.36942685e-03, 0., 0., 0., 0., 0., 0., 0., 0.,
          6.36942685e-03, 0., 0., 0., 0., 0., 0., 0., 0., 6.36942685e-03,
          0., 6.36942685e-03, 0., 0., 6.36942685e-03, 0., 0., 0., 0., 0.,
          6.36942685e-03, 6.36942685e-03, 0., 0., 0., 6.36942685e-03, 0.,
          0., 0., 0., 6.36942685e-03, 6.36942685e-03, 0., 0., 0., 0., 0.,
          6.36942685e-03, 0., 0., 0., 0., 0., 0., 0., 0., 0.,
          6.36942685e-03, 0., 6.36942685e-03, 0., 0., 0., 0.,
          6.36942685e-03, 0., 0., 6.36942685e-03, 0., 0., 6.36942685e-03,
          0., 6.36942685e-03, 0., 0., 0., 0., 0., 0., 0., 0., 0., 0., 0.,
          0., 0., 6.36942685e-03, 0., 0., 0., 0., 1.27388537e-02, 0., 0.,
          0., 0., 0., 0., 0., 6.36942685e-03, 0., 6.36942685e-03, 0., 0.,
          0., 0., 0., 0., 0., 0., 6.36942685e-03, 0., 0., 0., 0., 0., 0.,
          0., 0., 6.36942685e-03, 0., 0., 0., 0., 0., 6.36942685e-03,
          6.36942685e-03, 6.36942685e-03, 0., 0., 0., 6.36942685e-03,
          6.36942685e-03, 6.36942685e-03, 6.36942685e-03, 0., 0., 0., 0.,
          0., 0., 0., 6.36942685e-03, 0., 6.36942685e-03, 0.,
          6.36942685e-03, 1.27388537e-02, 0., 0., 6.36942685e-03, 0., 0.,
          6.36942685e-03, 0., 0., 0., 0., 0., 0., 0., 0., 0., 0., 0., 0.,
          0., 0., 6.36942685e-03, 0., 0., 0., 0., 0., 0., 0., 0.,
          6.36942685e-03, 6.36942685e-03, 0., 0., 0., 1.27388537e-02, 0.,
          0., 0., 0., 6.36942685e-03, 0., 0., 0., 0., 0., 6.36942685e-03,
          0., 0., 0., 0., 0., 0., 0., 0., 0., 0., 6.36942685e-03, 0., 0.,
          1.27388537e-02, 0., 6.36942685e-03, 0., 0., 0., 6.36942685e-03,
          0., 6.36942685e-03, 6.36942685e-03, 0., 0., 0., 1.91082805e-02,
          0., 0., 0., 0., 0., 0., 0., 0., 0., 0., 0., 0., 0., 0., 0., 0.,
          0., 0., 0., 0., 0., 6.36942685e-03, 0., 6.36942685e-03, 0., 0.,
          0., 0., 6.36942685e-03, 0., 0., 0., 0., 0., 6.36942685e-03,
          6.36942685e-03, 0., 0., 1.27388537e-02, 6.36942685e-03,
          6.36942685e-03, 0., 6.36942685e-03, 0., 0., 0., 0., 0., 0., 0.,
          0., 0., 0., 6.36942685e-03, 6.36942685e-03, 0., 0., 0., 0., 0.,
          6.36942685e-03, 6.36942685e-03, 0., 0., 0. ]
      - [ 0., 0., 0., 6.25000009e-03, 6.25000009e-03, 0., 0., 0.,
          4.37499993e-02, 0., 0., 6.25000009e-03, 0., 6.25000009e-03, 0.,
          0., 6.25000009e-03, 3.12500000e-02, 0., 6.25000009e-03,
          6.25000009e-03, 0., 0., 6.25000009e-03, 0., 0., 0., 0., 0., 0.,
          0., 2.50000004e-02, 0., 6.25000009e-03, 6.25000009e-03, 0.,
          3.12500000e-02, 6.25000009e-03, 6.25000009e-03, 0., 0., 0., 0.,
          0., 6.25000009e-03, 0., 0., 6.25000009e-03, 6.25000009e-03, 0.,
          0., 0., 0., 6.25000009e-03, 6.25000009e-03, 0., 0., 0., 0.,
          1.87500007e-02, 0., 0., 0., 0., 6.25000009e-03, 0.,
          1.25000002e-02, 0., 0., 0., 0., 0., 0., 6.25000009e-03, 0., 0.,
          0., 0., 0., 0., 6.25000009e-03, 0., 0., 6.25000009e-03, 0., 0.,
          0., 0., 1.87500007e-02, 6.25000009e-03, 6.25000009e-03, 0.,
          6.25000009e-03, 0., 0., 6.25000009e-03, 0., 0., 0., 0., 0., 0.,
          0., 0., 1.87500007e-02, 0., 6.25000009e-03, 0., 0., 0.,
          6.25000009e-03, 0., 0., 0., 0., 0., 0., 0., 0., 0.,
          6.25000009e-03, 0., 0., 0., 6.25000009e-03, 0., 0., 0., 0., 0.,
          0., 6.25000009e-03, 0., 6.25000009e-03, 0., 6.25000009e-03,
          6.25000009e-03, 0., 0., 6.25000009e-03, 0., 0., 6.25000009e-03,
          0., 6.25000009e-03, 0., 0., 0., 0., 0., 0., 0., 0., 0., 0., 0.,
          0., 0., 0., 0., 0., 6.25000009e-03, 0., 6.25000009e-03, 0., 0.,
          0., 0., 0., 0., 6.25000009e-03, 6.25000009e-03, 0., 0., 0., 0.,
          0., 0., 6.25000009e-03, 0., 0., 0., 0., 6.25000009e-03,
          1.25000002e-02, 0., 0., 6.25000009e-03, 0., 0., 6.25000009e-03,
          0., 0., 0., 1.25000002e-02, 0., 0., 0., 0., 0., 0.,
          6.25000009e-03, 0., 0., 0., 1.25000002e-02, 0., 0., 0., 0., 0.,
          0., 0., 0., 0., 6.25000009e-03, 0., 0., 0., 0., 0., 0.,
          6.25000009e-03, 0., 6.25000009e-03, 0., 6.25000009e-03, 0., 0.,
          0., 0., 0., 6.25000009e-03, 6.25000009e-03, 0., 6.25000009e-03,
          6.25000009e-03, 0., 0., 0., 6.25000009e-03, 0., 0.,
          3.12500000e-02, 6.25000009e-03, 1.25000002e-02, 1.87500007e-02,
          0., 0., 0., 6.25000009e-03, 0., 0., 0., 1.25000002e-02,
          1.87500007e-02, 0., 0., 0., 0., 0., 0., 0., 1.25000002e-02, 0.,
          0., 0., 0., 0., 0., 0., 0., 0., 0., 0., 0., 6.25000009e-03, 0.,
          0., 0., 0., 0., 0., 0., 6.25000009e-03, 0., 0., 0., 0., 0.,
          6.25000009e-03, 0., 0., 0., 6.25000009e-03, 0., 6.25000009e-03,
          0., 0., 0., 0., 1.87500007e-02, 0., 6.25000009e-03, 0., 0., 0.,
          0., 0., 6.25000009e-03, 0., 0., 6.25000009e-03, 0.,
          6.25000009e-03, 0., 0., 0., 0., 0., 0., 0., 0., 6.25000009e-03,
          0., 0., 0., 0., 0., 6.25000009e-03, 1.87500007e-02,
          1.87500007e-02, 0., 0., 0., 0., 0., 0., 0., 0., 0., 0., 0., 0.,
          6.25000009e-03, 0., 6.25000009e-03, 0., 0., 0., 0., 0., 0., 0.,
          0., 6.25000009e-03, 0., 1.25000002e-02, 0., 0., 0., 0., 0., 0.,
          6.25000009e-03, 6.25000009e-03, 0., 0., 0., 0., 0., 0., 0., 0.,
          0., 0., 0., 0., 0., 0., 6.25000009e-03, 0., 0., 0., 0.,
          6.25000009e-03, 0., 0., 6.25000009e-03, 0., 0., 6.25000009e-03,
          0., 0., 0., 0., 0., 0., 0., 0., 0., 6.25000009e-03, 0., 0., 0.,
          0., 6.25000009e-03, 0., 0., 0., 0., 0., 0., 0., 0., 0., 0., 0.,
          0., 0., 0., 0., 0., 0., 0., 0., 0., 0., 0., 0., 6.25000009e-03,
          0., 0., 0., 0., 0., 6.25000009e-03, 0., 6.25000009e-03, 0., 0.,
          6.25000009e-03, 0., 0., 0., 0., 0., 0., 0., 6.25000009e-03, 0.,
          0., 0., 0., 0., 0., 0., 0., 0., 0., 0., 0., 0., 6.25000009e-03,
          6.25000009e-03, 0., 0., 6.25000009e-03, 0., 0., 0.,
          6.25000009e-03, 6.25000009e-03, 0., 6.25000009e-03, 0.,
          6.25000009e-03, 0., 0., 0., 0., 0., 6.25000009e-03, 0., 0., 0.,
          0., 0., 0., 0., 0., 0., 0., 0., 0., 1.25000002e-02, 0., 0.,
          6.25000009e-03, 0. ]
      - [ 0., 8.40336177e-03, 0., 0., 0., 0., 0., 0., 0., 0., 0., 0., 0.,
          0., 0., 0., 0., 0., 0., 8.40336177e-03, 2.52100863e-02, 0., 0.,
          8.40336177e-03, 0., 8.40336177e-03, 0., 0., 0., 0., 0., 0., 0.,
          0., 0., 0., 1.68067235e-02, 0., 0., 0., 0., 0., 8.40336177e-03,
          0., 0., 0., 0., 0., 1.68067235e-02, 0., 0., 8.40336177e-03, 0.,
          0., 0., 0., 8.40336177e-03, 0., 8.40336177e-03, 0., 0., 0., 0.,
          8.40336177e-03, 8.40336177e-03, 0., 2.52100863e-02,
          8.40336177e-03, 8.40336177e-03, 0., 0., 8.40336177e-03, 0., 0.,
          0., 0., 0., 8.40336177e-03, 0., 0., 0., 8.40336177e-03, 0., 0.,
          0., 8.40336177e-03, 0., 0., 8.40336177e-03, 0., 0., 0., 0., 0.,
          0., 0., 0., 8.40336177e-03, 8.40336177e-03, 8.40336177e-03, 0.,
          8.40336177e-03, 0., 0., 0., 8.40336177e-03, 8.40336177e-03, 0.,
          0., 0., 0., 0., 8.40336177e-03, 0., 0., 0., 0., 1.68067235e-02,
          0., 0., 0., 1.68067235e-02, 0., 8.40336177e-03, 8.40336177e-03,
          0., 0., 0., 0., 0., 0., 0., 0., 8.40336177e-03, 8.40336177e-03,
          0., 0., 0., 0., 0., 8.40336177e-03, 0., 0., 0., 0., 0.,
          8.40336177e-03, 0., 0., 0., 0., 0., 0., 0., 0., 0., 0., 0., 0.,
          8.40336177e-03, 0., 8.40336177e-03, 0., 0., 0., 0., 0.,
          8.40336177e-03, 8.40336177e-03, 8.40336177e-03, 8.40336177e-03,
          0., 0., 0., 0., 0., 0., 0., 8.40336177e-03, 0., 0., 0., 0., 0.,
          8.40336177e-03, 1.68067235e-02, 0., 8.40336177e-03,
          8.40336177e-03, 0., 8.40336177e-03, 8.40336177e-03, 0., 0., 0.,
          0., 8.40336177e-03, 1.68067235e-02, 0., 0., 0., 8.40336177e-03,
          0., 8.40336177e-03, 0., 0., 0., 8.40336177e-03, 0., 0., 0.,
          8.40336177e-03, 0., 0., 0., 0., 8.40336177e-03, 1.68067235e-02,
          0., 0., 0., 0., 0., 8.40336177e-03, 0., 0., 8.40336177e-03, 0.,
          0., 8.40336177e-03, 0., 0., 0., 0., 0., 0., 0., 8.40336177e-03,
          0., 0., 0., 0., 0., 0., 8.40336177e-03, 0., 0., 0., 0.,
          8.40336177e-03, 0., 0., 0., 0., 0., 8.40336177e-03,
          8.40336177e-03, 0., 0., 0., 0., 0., 0., 0., 0., 0., 0., 0., 0.,
          0., 0., 0., 0., 0., 0., 0., 0., 0., 0., 0., 0., 8.40336177e-03,
          8.40336177e-03, 0., 0., 0., 0., 8.40336177e-03, 0., 0.,
          8.40336177e-03, 0., 0., 0., 8.40336177e-03, 0., 0., 0., 0., 0.,
          0., 0., 0., 0., 8.40336177e-03, 0., 0., 0., 8.40336177e-03, 0.,
          0., 0., 0., 0., 0., 0., 0., 0., 8.40336177e-03, 0., 0., 0.,
          8.40336177e-03, 0., 0., 8.40336177e-03, 0., 8.40336177e-03, 0.,
          0., 0., 0., 0., 0., 0., 0., 0., 0., 0., 0., 0., 0., 0.,
          8.40336177e-03, 8.40336177e-03, 0., 0., 0., 0., 0., 0., 0., 0.,
          0., 0., 0., 0., 0., 8.40336177e-03, 0., 0., 8.40336177e-03,
          8.40336177e-03, 0., 0., 0., 0., 8.40336177e-03, 0., 0., 0.,
          8.40336177e-03, 8.40336177e-03, 8.40336177e-03, 0., 0., 0., 0.,
          0., 0., 0., 0., 8.40336177e-03, 0., 0., 0., 8.40336177e-03, 0.,
          8.40336177e-03, 0., 0., 8.40336177e-03, 0., 0., 0., 0., 0., 0.,
          0., 0., 0., 0., 8.40336177e-03, 0., 1.68067235e-02, 0., 0.,
          2.52100863e-02, 0., 0., 0., 0., 0., 0., 0., 0., 0., 0., 0., 0.,
          0., 0., 0., 0., 8.40336177e-03, 0., 1.68067235e-02,
          8.40336177e-03, 0., 0., 0., 0., 0., 0., 0., 0., 8.40336177e-03,
          8.40336177e-03, 0., 0., 0., 8.40336177e-03, 0., 8.40336177e-03,
          0., 8.40336177e-03, 0., 0., 1.68067235e-02, 0., 0., 0., 0., 0.,
          0., 0., 0., 0., 0., 0., 8.40336177e-03, 0., 0., 0., 0., 0., 0.,
          0., 0., 0., 0., 0., 0., 0., 0., 0., 0., 0., 0., 0., 0., 0., 0.,
          0., 0., 0., 0., 0., 0., 8.40336177e-03, 0., 0., 0., 0., 0., 0.,
          0., 0., 0., 0. ]
      - [ 0., 6.49350649e-03, 0., 0., 0., 6.49350649e-03, 0., 0.,
          5.84415570e-02, 0., 0., 0., 0., 0., 0., 0., 0., 6.49350649e-03,
          0., 0., 6.49350649e-03, 0., 6.49350649e-03, 6.49350649e-03, 0.,
          6.49350649e-03, 0., 0., 0., 0., 0., 0., 0., 0., 0., 0.,
          1.29870130e-02, 0., 0., 0., 6.49350649e-03, 0., 6.49350649e-03,
          0., 6.49350649e-03, 0., 0., 0., 6.49350649e-03, 0., 0.,
          6.49350649e-03, 0., 0., 0., 0., 6.49350649e-03, 0.,
          6.49350649e-03, 1.29870130e-02, 0., 0., 0., 6.49350649e-03,
          6.49350649e-03, 0., 1.94805190e-02, 6.49350649e-03,
          6.49350649e-03, 6.49350649e-03, 0., 0., 0., 0., 0.,
          6.49350649e-03, 0., 0., 0., 0., 0., 0., 0., 0., 0., 0., 0., 0.,
          4.54545468e-02, 0., 6.49350649e-03, 0., 0., 6.49350649e-03, 0.,
          1.29870130e-02, 0., 0., 0., 6.49350649e-03, 0., 0.,
          1.94805190e-02, 1.29870130e-02, 0., 6.49350649e-03,
          6.49350649e-03, 6.49350649e-03, 0., 0., 0., 0., 0., 0., 0., 0.,
          0., 0., 0., 0., 0., 0., 0., 6.49350649e-03, 6.49350649e-03,
          6.49350649e-03, 0., 0., 0., 0., 0., 0., 0., 6.49350649e-03,
          6.49350649e-03, 0., 0., 6.49350649e-03, 0., 0., 6.49350649e-03,
          0., 0., 0., 6.49350649e-03, 0., 0., 0., 0., 0., 0., 0., 0., 0.,
          0., 0., 0., 0., 0., 0., 0., 6.49350649e-03, 0., 0., 0., 0., 0.,
          6.49350649e-03, 0., 0., 6.49350649e-03, 6.49350649e-03, 0., 0.,
          0., 0., 0., 0., 6.49350649e-03, 0., 0., 0., 6.49350649e-03, 0.,
          1.29870130e-02, 6.49350649e-03, 0., 6.49350649e-03, 0.,
          6.49350649e-03, 0., 1.29870130e-02, 0., 0., 0., 0.,
          6.49350649e-03, 6.49350649e-03, 0., 0., 0., 0., 0.,
          6.49350649e-03, 0., 0., 0., 0., 0., 0., 6.49350649e-03, 0.,
          6.49350649e-03, 0., 0., 0., 6.49350649e-03, 0., 0., 0.,
          6.49350649e-03, 0., 0., 1.29870130e-02, 0., 0., 6.49350649e-03,
          0., 0., 6.49350649e-03, 0., 6.49350649e-03, 0., 0., 0., 0., 0.,
          0., 6.49350649e-03, 0., 0., 0., 0., 0., 0., 6.49350649e-03, 0.,
          0., 0., 0., 0., 0., 1.94805190e-02, 0., 0., 6.49350649e-03, 0.,
          0., 0., 0., 0., 0., 0., 6.49350649e-03, 0., 0., 0., 0., 0., 0.,
          0., 0., 0., 6.49350649e-03, 6.49350649e-03, 6.49350649e-03,
          1.29870130e-02, 0., 0., 0., 0., 1.29870130e-02, 0., 0., 0.,
          6.49350649e-03, 0., 0., 0., 0., 0., 0., 0., 0., 6.49350649e-03,
          6.49350649e-03, 0., 0., 0., 0., 0., 0., 0., 6.49350649e-03, 0.,
          0., 0., 0., 6.49350649e-03, 1.94805190e-02, 0., 0., 0., 0., 0.,
          0., 0., 0., 6.49350649e-03, 0., 0., 0., 0., 0., 0.,
          6.49350649e-03, 0., 6.49350649e-03, 0., 0., 0., 6.49350649e-03,
          0., 0., 0., 0., 0., 0., 0., 6.49350649e-03, 0., 0., 0., 0., 0.,
          0., 0., 6.49350649e-03, 0., 0., 0., 0., 0., 0., 0.,
          6.49350649e-03, 6.49350649e-03, 0., 0., 6.49350649e-03, 0.,
          6.49350649e-03, 0., 0., 6.49350649e-03, 1.94805190e-02, 0.,
          6.49350649e-03, 6.49350649e-03, 0., 0., 6.49350649e-03,
          6.49350649e-03, 0., 0., 0., 0., 0., 0., 0., 0., 6.49350649e-03,
          0., 0., 0., 0., 6.49350649e-03, 0., 0., 6.49350649e-03, 0.,
          1.29870130e-02, 0., 0., 0., 0., 0., 0., 1.29870130e-02, 0., 0.,
          1.29870130e-02, 0., 0., 1.29870130e-02, 0., 0., 0., 0., 0., 0.,
          0., 0., 0., 0., 6.49350649e-03, 6.49350649e-03, 0., 0., 0., 0.,
          6.49350649e-03, 0., 6.49350649e-03, 6.49350649e-03, 0., 0., 0.,
          0., 0., 0., 0., 6.49350649e-03, 0., 0., 0., 0., 6.49350649e-03,
          0., 6.49350649e-03, 0., 0., 0., 6.49350649e-03, 0., 0., 0., 0.,
          0., 0., 0., 0., 0., 0., 0., 6.49350649e-03, 0., 0., 0., 0.,
          1.29870130e-02, 0., 0., 6.49350649e-03, 0., 0., 0., 0., 0., 0.,
          0., 0., 0., 0., 0., 0., 0., 0., 0., 0., 0., 6.49350649e-03, 0.,
          0., 0., 0., 0., 0., 0., 0., 0., 0., 0., 0., 0., 0., 0., 0., 0.,
          0. ]
      - [ 0., 0., 0., 0., 0., 9.70873795e-03, 0., 0., 0., 0.,
          9.70873795e-03, 0., 0., 0., 0., 0., 0., 0., 0., 0.,
          9.70873795e-03, 0., 0., 9.70873795e-03, 0., 9.70873795e-03, 0.,
          0., 0., 0., 0., 0., 0., 0., 0., 0., 1.94174759e-02, 0., 0., 0.,
          0., 0., 0., 0., 0., 0., 0., 0., 1.94174759e-02, 0., 0.,
          9.70873795e-03, 0., 0., 9.70873795e-03, 0., 9.70873795e-03, 0.,
          9.70873795e-03, 0., 0., 0., 0., 0., 9.70873795e-03, 0.,
          2.91262139e-02, 9.70873795e-03, 0., 1.94174759e-02, 0.,
          9.70873795e-03, 0., 0., 9.70873795e-03, 9.70873795e-03, 0., 0.,
          0., 0., 0., 9.70873795e-03, 0., 0., 0., 0., 0., 0., 0., 0.,
          9.70873795e-03, 0., 0., 0., 0., 1.94174759e-02, 0.,
          9.70873795e-03, 9.70873795e-03, 0., 0., 9.70873795e-03, 0., 0.,
          0., 9.70873795e-03, 9.70873795e-03, 0., 0., 0., 1.94174759e-02,
          0., 0., 0., 0., 0., 0., 0., 0., 0., 0., 0., 0., 9.70873795e-03,
          9.70873795e-03, 0., 0., 0., 0., 0., 0., 0., 0., 9.70873795e-03,
          9.70873795e-03, 0., 0., 9.70873795e-03, 0., 0., 9.70873795e-03,
          0., 9.70873795e-03, 0., 0., 0., 0., 0., 0., 0., 0., 0., 0., 0.,
          0., 9.70873795e-03, 0., 0., 0., 9.70873795e-03, 0.,
          9.70873795e-03, 0., 0., 0., 0., 0., 9.70873795e-03, 0.,
          9.70873795e-03, 9.70873795e-03, 0., 0., 0., 0., 0.,
          9.70873795e-03, 0., 1.94174759e-02, 0., 0., 0., 0.,
          9.70873795e-03, 0., 9.70873795e-03, 0., 1.94174759e-02,
          9.70873795e-03, 0., 0., 9.70873795e-03, 0., 0., 0., 0.,
          9.70873795e-03, 9.70873795e-03, 0., 0., 0., 0., 0.,
          9.70873795e-03, 0., 0., 0., 0., 0., 0., 0., 9.70873795e-03, 0.,
          0., 0., 0., 9.70873795e-03, 9.70873795e-03, 0., 0., 0., 0., 0.,
          9.70873795e-03, 0., 0., 9.70873795e-03, 0., 0., 9.70873795e-03,
          0., 0., 0., 0., 0., 0., 0., 9.70873795e-03, 0., 0., 0., 0., 0.,
          0., 0., 0., 0., 0., 0., 0., 0., 0., 0., 0., 0., 0.,
          9.70873795e-03, 9.70873795e-03, 9.70873795e-03, 0., 0., 0., 0.,
          9.70873795e-03, 0., 0., 0., 0., 0., 0., 0., 0., 0., 0., 0.,
          9.70873795e-03, 1.94174759e-02, 0., 0., 9.70873795e-03, 0.,
          9.70873795e-03, 0., 0., 0., 0., 0., 0., 0., 0., 0., 0., 0., 0.,
          9.70873795e-03, 9.70873795e-03, 0., 0., 0., 0., 0., 0., 0., 0.,
          9.70873795e-03, 0., 0., 0., 9.70873795e-03, 0., 0., 0., 0., 0.,
          0., 0., 0., 0., 9.70873795e-03, 9.70873795e-03, 0., 0.,
          9.70873795e-03, 0., 1.94174759e-02, 9.70873795e-03, 0.,
          9.70873795e-03, 0., 0., 0., 0., 0., 0., 0., 0., 0., 0., 0., 0.,
          0., 0., 0., 0., 0., 0., 0., 0., 0., 0., 0., 0., 0., 0., 0., 0.,
          0., 0., 9.70873795e-03, 0., 0., 0., 0., 0., 0., 0., 0.,
          9.70873795e-03, 9.70873795e-03, 0., 0., 9.70873795e-03,
          9.70873795e-03, 0., 0., 0., 0., 9.70873795e-03, 0., 0., 0., 0.,
          0., 0., 0., 0., 0., 0., 0., 0., 0., 0., 0., 0., 0., 0., 0., 0.,
          0., 0., 0., 0., 0., 0., 9.70873795e-03, 0., 0., 0., 0., 0., 0.,
          0., 0., 0., 0., 9.70873795e-03, 0., 0., 0., 0., 0., 0., 0.,
          9.70873795e-03, 0., 0., 0., 0., 0., 0., 0., 0., 9.70873795e-03,
          0., 0., 0., 0., 9.70873795e-03, 0., 9.70873795e-03, 0., 0., 0.,
          0., 0., 9.70873795e-03, 0., 0., 9.70873795e-03, 0., 0., 0., 0.,
          0., 0., 0., 0., 0., 0., 0., 9.70873795e-03, 0., 0., 0., 0., 0.,
          0., 0., 0., 0., 0., 0., 0., 0., 0., 0., 0., 0., 9.70873795e-03,
          0., 0., 0., 0., 0., 0., 0., 0., 0., 0., 0., 0., 0., 0., 0., 0.,
          0., 9.70873795e-03, 0., 0., 0. ]
      - [ 0., 6.57894742e-03, 0., 0., 0., 0., 0., 0., 4.60526310e-02, 0.,
          0., 0., 0., 0., 0., 0., 0., 1.31578948e-02, 0., 0., 0., 0., 0.,
          6.57894742e-03, 0., 6.57894742e-03, 0., 0., 0., 0., 0.,
          1.97368413e-02, 0., 0., 0., 6.57894742e-03, 6.57894742e-03, 0.,
          0., 0., 0., 6.57894742e-03, 6.57894742e-03, 0., 0., 0., 0., 0.,
          6.57894742e-03, 0., 6.57894742e-03, 6.57894742e-03, 0., 0., 0.,
          0., 6.57894742e-03, 0., 6.57894742e-03, 1.97368413e-02, 0., 0.,
          0., 0., 6.57894742e-03, 0., 3.28947380e-02, 0., 0., 0., 0., 0.,
          0., 0., 6.57894742e-03, 6.57894742e-03, 0., 1.31578948e-02, 0.,
          0., 6.57894742e-03, 0., 0., 0., 0., 0., 0., 0., 4.60526310e-02,
          0., 0., 6.57894742e-03, 0., 6.57894742e-03, 0., 6.57894742e-03,
          0., 0., 6.57894742e-03, 0., 0., 0., 1.97368413e-02, 0., 0.,
          6.57894742e-03, 0., 0., 0., 0., 6.57894742e-03, 0., 0., 0., 0.,
          0., 0., 0., 0., 6.57894742e-03, 0., 0., 0., 6.57894742e-03,
          6.57894742e-03, 6.57894742e-03, 0., 0., 0., 0., 0., 0., 0.,
          1.31578948e-02, 6.57894742e-03, 0., 0., 6.57894742e-03, 0., 0.,
          6.57894742e-03, 0., 0., 0., 6.57894742e-03, 0., 0.,
          6.57894742e-03, 0., 0., 0., 0., 0., 0., 0., 6.57894742e-03,
          6.57894742e-03, 0., 0., 6.57894742e-03, 6.57894742e-03,
          6.57894742e-03, 0., 0., 0., 0., 0., 0., 0., 6.57894742e-03, 0.,
          0., 0., 0., 0., 0., 6.57894742e-03, 0., 6.57894742e-03, 0., 0.,
          0., 0., 0., 2.63157897e-02, 6.57894742e-03, 0., 6.57894742e-03,
          0., 0., 0., 1.31578948e-02, 0., 0., 0., 0., 6.57894742e-03,
          6.57894742e-03, 0., 0., 0., 0., 0., 6.57894742e-03, 0., 0., 0.,
          0., 0., 0., 0., 0., 0., 0., 0., 0., 6.57894742e-03, 0., 0., 0.,
          0., 0., 0., 6.57894742e-03, 0., 0., 0., 0., 0., 6.57894742e-03,
          0., 6.57894742e-03, 0., 0., 0., 0., 6.57894742e-03,
          6.57894742e-03, 0., 0., 6.57894742e-03, 0., 0., 0.,
          6.57894742e-03, 0., 6.57894742e-03, 0., 0., 0., 0., 0.,
          6.57894742e-03, 0., 0., 6.57894742e-03, 0., 0., 6.57894742e-03,
          0., 0., 6.57894742e-03, 0., 0., 0., 0., 0., 0., 0., 0., 0., 0.,
          0., 0., 6.57894742e-03, 6.57894742e-03, 0., 0., 0., 0., 0.,
          6.57894742e-03, 0., 0., 0., 6.57894742e-03, 0., 0., 0., 0., 0.,
          0., 6.57894742e-03, 0., 6.57894742e-03, 6.57894742e-03, 0., 0.,
          0., 0., 0., 0., 0., 0., 0., 0., 0., 0., 6.57894742e-03,
          1.97368413e-02, 0., 0., 0., 0., 0., 0., 0., 0., 0.,
          6.57894742e-03, 0., 0., 6.57894742e-03, 0., 0., 6.57894742e-03,
          0., 6.57894742e-03, 0., 0., 6.57894742e-03, 6.57894742e-03, 0.,
          0., 0., 0., 0., 0., 0., 0., 0., 0., 1.31578948e-02, 0., 0., 0.,
          0., 6.57894742e-03, 0., 0., 0., 6.57894742e-03, 0., 0., 0., 0.,
          0., 0., 0., 6.57894742e-03, 0., 0., 0., 0., 0., 2.63157897e-02,
          0., 6.57894742e-03, 6.57894742e-03, 0., 0., 6.57894742e-03,
          6.57894742e-03, 6.57894742e-03, 0., 0., 0., 6.57894742e-03, 0.,
          0., 0., 0., 0., 0., 6.57894742e-03, 0., 1.31578948e-02, 0., 0.,
          0., 0., 0., 6.57894742e-03, 0., 0., 0., 0., 0., 0., 0., 0.,
          6.57894742e-03, 6.57894742e-03, 0., 0., 0., 0., 6.57894742e-03,
          0., 6.57894742e-03, 0., 0., 0., 0., 0., 6.57894742e-03, 0., 0.,
          6.57894742e-03, 0., 0., 0., 0., 6.57894742e-03, 6.57894742e-03,
          0., 6.57894742e-03, 0., 6.57894742e-03, 0., 0., 0., 0., 0.,
          6.57894742e-03, 0., 0., 0., 0., 6.57894742e-03, 0.,
          6.57894742e-03, 0., 0., 0., 0., 0., 0., 0., 0., 0., 0., 0., 0.,
          0., 0., 0., 0., 0., 0., 6.57894742e-03, 0., 0., 1.31578948e-02,
          0., 0., 0., 0., 6.57894742e-03, 0., 0., 0., 0., 0., 0., 0., 0.,
          0., 0., 0., 0., 0., 0., 0., 0., 0., 0., 6.57894742e-03,
          6.57894742e-03, 0., 0., 0., 0., 0., 0., 0., 0., 0., 0., 0. ]
      - [ 0., 1.55038759e-02, 0., 7.75193796e-03, 1.55038759e-02, 0., 0.,
          0., 2.32558139e-02, 0., 0., 0., 0., 0., 0., 0., 0.,
          1.55038759e-02, 0., 0., 7.75193796e-03, 0., 0., 0., 0., 0., 0.,
          0., 7.75193796e-03, 0., 0., 7.75193796e-03, 0., 7.75193796e-03,
          0., 0., 7.75193796e-03, 0., 0., 7.75193796e-03, 0., 0., 0., 0.,
          0., 7.75193796e-03, 0., 0., 7.75193796e-03, 0., 0., 0., 0., 0.,
          0., 0., 1.55038759e-02, 0., 7.75193796e-03, 1.55038759e-02, 0.,
          0., 0., 7.75193796e-03, 0., 0., 2.32558139e-02, 0., 0., 0.,
          7.75193796e-03, 0., 0., 7.75193796e-03, 0., 0., 0.,
          7.75193796e-03, 7.75193796e-03, 0., 0., 0., 0., 0., 0.,
          1.55038759e-02, 0., 0., 7.75193796e-03, 0., 0., 1.55038759e-02,
          0., 7.75193796e-03, 0., 0., 0., 7.75193796e-03, 0., 0.,
          7.75193796e-03, 0., 3.10077518e-02, 0., 0., 0., 0., 0., 0., 0.,
          0., 0., 0., 0., 0., 7.75193796e-03, 0., 0., 0., 1.55038759e-02,
          7.75193796e-03, 7.75193796e-03, 0., 0., 0., 0., 0., 0., 0., 0.,
          0., 0., 0., 0., 7.75193796e-03, 0., 0., 0., 0., 0.,
          7.75193796e-03, 0., 0., 0., 7.75193796e-03, 0., 0., 0., 0.,
          7.75193796e-03, 0., 0., 0., 0., 0., 0., 0., 0., 7.75193796e-03,
          1.55038759e-02, 7.75193796e-03, 7.75193796e-03, 0., 0., 0., 0.,
          0., 0., 0., 7.75193796e-03, 0., 0., 0., 0., 0., 0., 0.,
          7.75193796e-03, 0., 0., 7.75193796e-03, 0., 0., 0.,
          1.55038759e-02, 7.75193796e-03, 0., 0., 0., 0., 0., 0., 0.,
          7.75193796e-03, 0., 0., 7.75193796e-03, 7.75193796e-03,
          7.75193796e-03, 0., 0., 0., 0., 0., 0., 0., 0., 0., 0., 0., 0.,
          0., 0., 0., 0., 0., 0., 0., 0., 0., 0., 0., 0., 0., 0., 0.,
          7.75193796e-03, 0., 0., 0., 0., 0., 0., 0., 0., 0., 0., 0.,
          7.75193796e-03, 0., 0., 7.75193796e-03, 0., 0., 0.,
          7.75193796e-03, 0., 0., 0., 0., 0., 0., 0., 0., 0.,
          7.75193796e-03, 0., 0., 0., 0., 1.55038759e-02, 0., 0., 0., 0.,
          0., 0., 0., 7.75193796e-03, 0., 0., 0., 0., 0., 0., 0., 0., 0.,
          7.75193796e-03, 0., 0., 7.75193796e-03, 0., 0., 0., 0., 0., 0.,
          0., 0., 0., 0., 0., 7.75193796e-03, 7.75193796e-03, 0., 0., 0.,
          0., 0., 0., 7.75193796e-03, 0., 0., 0., 0., 7.75193796e-03, 0.,
          0., 7.75193796e-03, 0., 0., 0., 0., 0., 0., 1.55038759e-02, 0.,
          0., 7.75193796e-03, 0., 0., 0., 0., 7.75193796e-03, 0., 0., 0.,
          0., 0., 2.32558139e-02, 0., 0., 0., 0., 0., 1.55038759e-02, 0.,
          0., 0., 0., 0., 7.75193796e-03, 0., 0., 0., 0., 7.75193796e-03,
          0., 7.75193796e-03, 0., 0., 0., 0., 0., 0., 0., 0., 0., 0.,
          1.55038759e-02, 0., 0., 7.75193796e-03, 0., 1.55038759e-02, 0.,
          0., 0., 7.75193796e-03, 7.75193796e-03, 7.75193796e-03, 0., 0.,
          7.75193796e-03, 2.32558139e-02, 0., 0., 0., 0., 0., 0., 0., 0.,
          0., 0., 0., 0., 0., 0., 0., 7.75193796e-03, 7.75193796e-03, 0.,
          0., 0., 0., 0., 0., 0., 0., 1.55038759e-02, 7.75193796e-03, 0.,
          0., 0., 0., 0., 0., 7.75193796e-03, 0., 0., 0., 0., 0., 0., 0.,
          0., 0., 0., 0., 0., 0., 0., 0., 0., 0., 0., 7.75193796e-03, 0.,
          0., 0., 0., 0., 7.75193796e-03, 0., 1.55038759e-02, 0., 0., 0.,
          0., 7.75193796e-03, 2.32558139e-02, 0., 0., 0., 0., 0., 0., 0.,
          0., 0., 0., 0., 0., 7.75193796e-03, 0., 0., 0., 0.,
          7.75193796e-03, 0., 0., 7.75193796e-03, 0., 0., 0., 0.,
          2.32558139e-02, 0., 7.75193796e-03, 0., 0., 0., 0., 0., 0., 0.,
          0., 0., 0., 0., 0., 0., 0., 1.55038759e-02, 0., 0., 0., 0., 0.,
          0., 0., 0., 0., 0., 0., 0., 0., 0. ]
      - [ 0., 0., 0., 6.75675692e-03, 0., 0., 0., 0., 8.10810849e-02, 0.,
          6.75675692e-03, 0., 0., 0., 0., 0., 0., 1.35135138e-02, 0.,
          6.75675692e-03, 0., 0., 0., 1.35135138e-02, 0., 0.,
          6.75675692e-03, 6.75675692e-03, 6.75675692e-03, 0., 0.,
          6.75675692e-03, 0., 0., 0., 0., 4.72972989e-02, 0., 0., 0.,
          6.75675692e-03, 0., 0., 1.35135138e-02, 0., 0., 0., 0., 0., 0.,
          6.75675692e-03, 0., 0., 0., 0., 0., 0., 0., 0., 0., 0., 0., 0.,
          0., 6.75675692e-03, 0., 0., 0., 0., 0., 6.75675692e-03, 0., 0.,
          0., 6.75675692e-03, 0., 0., 0., 6.75675692e-03, 0., 0., 0.,
          6.75675692e-03, 0., 0., 0., 0., 0., 1.35135138e-02, 0., 0., 0.,
          2.02702712e-02, 1.35135138e-02, 0., 6.75675692e-03, 0., 0., 0.,
          0., 0., 6.75675692e-03, 6.75675692e-03, 0., 0., 6.75675692e-03,
          0., 0., 0., 0., 6.75675692e-03, 6.75675692e-03, 6.75675692e-03,
          0., 0., 6.75675692e-03, 0., 0., 0., 0., 0., 0., 6.75675692e-03,
          0., 6.75675692e-03, 0., 0., 0., 6.75675692e-03, 0., 0.,
          6.75675692e-03, 0., 6.75675692e-03, 0., 0., 0., 0.,
          6.75675692e-03, 6.75675692e-03, 0., 0., 6.75675692e-03, 0., 0.,
          0., 0., 0., 6.75675692e-03, 6.75675692e-03, 0., 0., 0., 0., 0.,
          6.75675692e-03, 1.35135138e-02, 6.75675692e-03, 0., 0., 0., 0.,
          0., 0., 6.75675692e-03, 0., 1.35135138e-02, 0., 0.,
          6.75675692e-03, 0., 6.75675692e-03, 0., 0., 0., 0., 0., 0.,
          6.75675692e-03, 0., 0., 0., 0., 0., 2.70270277e-02, 0., 0., 0.,
          0., 0., 0., 0., 0., 0., 0., 0., 0., 0., 0., 0., 6.75675692e-03,
          0., 0., 0., 0., 0., 0., 0., 0., 0., 0., 0., 0., 0., 0., 0.,
          6.75675692e-03, 0., 0., 0., 0., 0., 0., 6.75675692e-03, 0., 0.,
          0., 0., 0., 0., 0., 0., 0., 0., 0., 0., 0., 6.75675692e-03, 0.,
          0., 0., 6.75675692e-03, 1.35135138e-02, 5.40540554e-02, 0., 0.,
          0., 0., 0., 6.75675692e-03, 0., 0., 1.35135138e-02,
          6.75675692e-03, 6.75675692e-03, 2.02702712e-02, 6.75675692e-03,
          0., 0., 6.75675692e-03, 0., 0., 0., 0., 0., 0., 0., 0., 0., 0.,
          0., 0., 0., 0., 6.75675692e-03, 1.35135138e-02, 0., 0.,
          6.75675692e-03, 0., 0., 0., 0., 6.75675692e-03, 0., 0., 0., 0.,
          0., 0., 6.75675692e-03, 0., 0., 0., 0., 0., 0., 0., 0., 0., 0.,
          6.75675692e-03, 0., 6.75675692e-03, 6.75675692e-03, 0., 0., 0.,
          0., 2.70270277e-02, 0., 0., 0., 6.75675692e-03, 0., 0.,
          6.75675692e-03, 0., 0., 0., 0., 0., 0., 6.75675692e-03, 0., 0.,
          0., 0., 0., 0., 2.02702712e-02, 0., 0., 6.75675692e-03, 0., 0.,
          0., 0., 0., 0., 0., 0., 0., 6.75675692e-03, 6.75675692e-03, 0.,
          0., 0., 0., 0., 0., 0., 0., 0., 0., 6.75675692e-03, 0.,
          1.35135138e-02, 0., 0., 0., 0., 0., 0., 6.75675692e-03, 0., 0.,
          0., 0., 0., 0., 0., 0., 0., 0., 0., 0., 0., 0., 0., 0., 0., 0.,
          0., 0., 6.75675692e-03, 0., 0., 0., 0., 0., 6.75675692e-03, 0.,
          1.35135138e-02, 0., 0., 0., 0., 0., 0., 0., 0., 0., 0.,
          6.75675692e-03, 0., 0., 0., 0., 0., 0., 0., 0., 0., 0., 0., 0.,
          0., 0., 0., 0., 6.75675692e-03, 0., 0., 6.75675692e-03,
          6.75675692e-03, 0., 0., 0., 0., 0., 0., 0., 0., 0.,
          6.75675692e-03, 6.75675692e-03, 0., 0., 0., 0., 0., 0., 0., 0.,
          0., 0., 0., 0., 0., 0., 0., 0., 0., 1.35135138e-02, 0.,
          6.75675692e-03, 0., 0., 0., 0., 0., 0., 0., 6.75675692e-03, 0.,
          0., 0., 0., 0., 0., 6.75675692e-03, 0., 0., 6.75675692e-03, 0.,
          6.75675692e-03, 0., 0., 0., 0., 0., 6.75675692e-03, 0., 0.,
          6.75675692e-03, 0., 0., 0., 0., 0., 0., 0., 0., 0., 0., 0., 0.,
          0., 0. ]
      - [ 0., 0., 0., 0., 0., 0., 0., 0., 7.08661377e-02, 0., 0., 0., 0.,
          0., 0., 0., 0., 3.14960629e-02, 0., 0., 0., 0., 0., 0., 0., 0.,
          7.87401572e-03, 0., 0., 0., 0., 7.87401572e-03, 0., 0., 0., 0.,
          0., 0., 0., 0., 0., 0., 0., 0., 7.87401572e-03, 0., 0., 0.,
          7.87401572e-03, 0., 0., 0., 7.87401572e-03, 0., 0., 0., 0., 0.,
          0., 2.36220472e-02, 0., 0., 0., 0., 7.87401572e-03, 0.,
          7.87401572e-03, 0., 0., 0., 1.57480314e-02, 0., 0., 0.,
          7.87401572e-03, 0., 0., 0., 7.87401572e-03, 0., 0., 0.,
          7.87401572e-03, 7.87401572e-03, 0., 0., 7.87401572e-03, 0., 0.,
          0., 7.87401572e-03, 0., 1.57480314e-02, 7.87401572e-03, 0.,
          7.87401572e-03, 0., 0., 0., 0., 0., 7.87401572e-03,
          3.93700786e-02, 7.87401572e-03, 0., 1.57480314e-02, 0., 0., 0.,
          7.87401572e-03, 7.87401572e-03, 0., 7.87401572e-03, 0., 0.,
          7.87401572e-03, 2.36220472e-02, 0., 0., 0., 0., 0.,
          7.87401572e-03, 0., 0., 7.87401572e-03, 0., 0., 0., 0., 0., 0.,
          0., 7.87401572e-03, 0., 0., 7.87401572e-03, 0., 0.,
          7.87401572e-03, 0., 0., 0., 7.87401572e-03, 0., 0., 0., 0., 0.,
          7.87401572e-03, 0., 0., 7.87401572e-03, 0., 0., 0., 0., 0., 0.,
          0., 0., 0., 0., 0., 0., 0., 7.87401572e-03, 0., 0., 0., 0.,
          1.57480314e-02, 0., 0., 0., 0., 0., 0., 0., 0., 7.87401572e-03,
          0., 7.87401572e-03, 0., 0., 0., 0., 0., 7.87401572e-03, 0.,
          7.87401572e-03, 0., 0., 0., 0., 0., 0., 0., 0., 7.87401572e-03,
          0., 0., 0., 0., 0., 0., 0., 0., 1.57480314e-02, 0., 0., 0., 0.,
          0., 0., 0., 0., 0., 0., 0., 0., 0., 0., 0., 0., 0.,
          7.87401572e-03, 0., 7.87401572e-03, 0., 0., 1.57480314e-02, 0.,
          0., 0., 7.87401572e-03, 0., 7.87401572e-03, 0., 7.87401572e-03,
          0., 0., 7.87401572e-03, 0., 0., 0., 7.87401572e-03,
          2.36220472e-02, 0., 0., 0., 7.87401572e-03, 0., 0.,
          7.87401572e-03, 7.87401572e-03, 0., 0., 0., 0., 7.87401572e-03,
          7.87401572e-03, 0., 0., 0., 0., 0., 0., 0., 0., 0., 0., 0., 0.,
          7.87401572e-03, 0., 0., 0., 7.87401572e-03, 0., 0., 0., 0.,
          7.87401572e-03, 0., 0., 0., 0., 0., 0., 0., 0., 7.87401572e-03,
          0., 0., 7.87401572e-03, 0., 0., 0., 7.87401572e-03, 0.,
          7.87401572e-03, 0., 0., 7.87401572e-03, 0., 0., 0.,
          7.87401572e-03, 1.57480314e-02, 0., 0., 0., 0., 0., 0., 0., 0.,
          0., 0., 0., 0., 0., 1.57480314e-02, 7.87401572e-03, 0., 0., 0.,
          0., 7.87401572e-03, 7.87401572e-03, 7.87401572e-03, 0., 0., 0.,
          0., 7.87401572e-03, 0., 0., 0., 0., 0., 0., 0., 0., 0., 0.,
          7.87401572e-03, 7.87401572e-03, 0., 0., 7.87401572e-03, 0., 0.,
          0., 0., 0., 0., 0., 0., 0., 0., 0., 7.87401572e-03,
          7.87401572e-03, 3.14960629e-02, 0., 0., 0., 0., 0.,
          7.87401572e-03, 0., 0., 0., 0., 0., 0., 0., 0., 0., 0., 0., 0.,
          7.87401572e-03, 7.87401572e-03, 0., 0., 0., 0., 0., 0., 0., 0.,
          0., 0., 0., 7.87401572e-03, 0., 0., 0., 0., 0., 0.,
          7.87401572e-03, 0., 7.87401572e-03, 0., 0., 0., 0., 0., 0., 0.,
          0., 0., 0., 7.87401572e-03, 7.87401572e-03, 0., 0., 0., 0., 0.,
          0., 0., 0., 7.87401572e-03, 0., 0., 0., 0., 0., 7.87401572e-03,
          0., 7.87401572e-03, 0., 0., 0., 0., 0., 0., 0., 0., 0., 0., 0.,
          0., 0., 7.87401572e-03, 0., 0., 0., 0., 0., 7.87401572e-03, 0.,
          0., 0., 0., 0., 0., 0., 0., 0., 7.87401572e-03, 0., 0., 0., 0.,
          0., 0., 0., 0., 0., 0., 0., 0., 0., 0., 0., 0., 0., 0., 0., 0.,
          0., 0., 0., 0., 0., 0., 0., 0., 0., 0., 0., 0., 0., 0. ]
      - [ 0., 0., 0., 0., 0., 0., 0., 0., 0., 0., 1.58730168e-02, 0., 0.,
          0., 0., 0., 0., 0., 0., 0., 0., 0., 1.58730168e-02, 0., 0., 0.,
          1.58730168e-02, 0., 0., 0., 0., 0., 0., 0., 0., 0., 0., 0., 0.,
          0., 0., 0., 0., 0., 0., 0., 0., 0., 0., 0., 0., 0.,
          1.58730168e-02, 1.58730168e-02, 1.58730168e-02, 0., 0., 0., 0.,
          0., 1.58730168e-02, 1.58730168e-02, 0., 0., 0., 0., 0., 0., 0.,
          0., 1.58730168e-02, 0., 0., 0., 0., 0., 0., 0., 0., 0., 0., 0.,
          0., 0., 0., 0., 3.17460336e-02, 0., 0., 0., 0., 0., 0., 0., 0.,
          0., 0., 0., 0., 1.58730168e-02, 0., 0., 0., 0., 0., 0.,
          1.58730168e-02, 0., 0., 0., 0., 0., 1.58730168e-02, 0.,
          1.58730168e-02, 0., 0., 0., 0., 0., 0., 0., 0., 0., 0., 0., 0.,
          0., 0., 0., 0., 0., 0., 0., 0., 0., 0., 0., 0., 0., 0.,
          1.58730168e-02, 0., 0., 0., 0., 0., 1.58730168e-02,
          1.58730168e-02, 0., 0., 0., 0., 0., 0., 0., 0., 0.,
          1.58730168e-02, 0., 0., 0., 0., 0., 0., 0., 0., 0., 0., 0., 0.,
          0., 0., 0., 0., 0., 0., 0., 0., 0., 0., 0., 1.58730168e-02, 0.,
          0., 0., 0., 0., 0., 0., 0., 0., 0., 0., 0., 0., 0., 0., 0., 0.,
          1.58730168e-02, 0., 0., 0., 0., 0., 1.58730168e-02,
          1.58730168e-02, 1.58730168e-02, 1.58730168e-02, 0., 0., 0., 0.,
          0., 0., 0., 0., 0., 0., 0., 0., 0., 0., 0., 0., 0.,
          1.58730168e-02, 0., 0., 0., 0., 0., 0., 0., 0., 0., 0., 0., 0.,
          1.58730168e-02, 0., 0., 0., 0., 0., 0., 1.58730168e-02, 0., 0.,
          0., 0., 0., 3.17460336e-02, 0., 0., 0., 0., 0., 0., 0., 0., 0.,
          0., 0., 1.58730168e-02, 0., 0., 0., 0., 0., 0., 0., 0., 0., 0.,
          0., 0., 0., 0., 1.58730168e-02, 1.58730168e-02, 0., 0., 0.,
          1.58730168e-02, 0., 0., 0., 3.17460336e-02, 0., 0., 0., 0., 0.,
          0., 1.58730168e-02, 0., 0., 0., 0., 0., 0., 0., 0., 0., 0., 0.,
          0., 0., 1.58730168e-02, 0., 0., 0., 0., 0., 0., 0., 0., 0.,
          1.58730168e-02, 0., 0., 0., 0., 0., 0., 0., 0., 1.58730168e-02,
          0., 0., 0., 0., 0., 0., 0., 0., 0., 0., 0., 0., 0., 0., 0.,
          3.17460336e-02, 0., 1.58730168e-02, 1.58730168e-02, 0., 0., 0.,
          1.58730168e-02, 0., 0., 0., 1.58730168e-02, 4.76190522e-02, 0.,
          0., 0., 0., 0., 0., 0., 0., 0., 0., 0., 0., 0., 0., 0., 0., 0.,
          0., 0., 0., 0., 0., 0., 0., 1.58730168e-02, 0., 0., 0.,
          1.58730168e-02, 0., 0., 0., 0., 1.58730168e-02, 0., 0., 0., 0.,
          0., 0., 0., 0., 0., 0., 0., 0., 0., 0., 0., 0., 0., 0., 0., 0.,
          0., 0., 0., 0., 1.58730168e-02, 0., 0., 0., 0., 0., 0., 0.,
          1.58730168e-02, 0., 0., 1.58730168e-02, 0., 0., 0., 0., 0.,
          1.58730168e-02, 0., 0., 0., 0., 0., 0., 0., 0., 0., 0., 0., 0.,
          0., 1.58730168e-02, 0., 0., 0., 0., 0., 0., 0., 0., 0., 0., 0.,
          0., 0., 0., 1.58730168e-02, 0., 0., 0., 1.58730168e-02, 0., 0.,
          0., 0., 0., 0., 0., 0., 0., 0., 0., 0., 0., 1.58730168e-02, 0.,
          1.58730168e-02, 0., 0., 1.58730168e-02, 0., 0., 0., 0., 0., 0.,
          0., 0., 0., 0., 0., 1.58730168e-02, 0., 0. ]
      - [ 0., 0., 0., 0., 0., 0., 0., 0., 0., 0., 1.66666675e-02, 0., 0.,
          0., 0., 0., 0., 0., 0., 0., 0., 0., 1.66666675e-02, 0., 0., 0.,
          0., 0., 0., 0., 0., 0., 0., 0., 0., 0., 0., 0., 0., 0., 0., 0.,
          0., 1.66666675e-02, 0., 0., 0., 0., 0., 0., 0., 0., 0., 0.,
          1.66666675e-02, 0., 0., 0., 0., 0., 0., 1.66666675e-02, 0.,
          1.66666675e-02, 0., 0., 0., 0., 0., 0., 0., 0., 0., 0., 0., 0.,
          0., 0., 0., 0., 0., 0., 0., 1.66666675e-02, 0., 0.,
          1.66666675e-02, 0., 0., 0., 0., 0., 0., 0., 0., 0., 0., 0., 0.,
          3.33333351e-02, 0., 0., 0., 0., 0., 0., 1.66666675e-02,
          3.33333351e-02, 0., 0., 0., 0., 1.66666675e-02, 0.,
          1.66666675e-02, 0., 0., 0., 0., 0., 0., 0., 0., 0., 0., 0., 0.,
          0., 0., 0., 0., 0., 0., 1.66666675e-02, 0., 0., 0., 0., 0., 0.,
          0., 0., 1.66666675e-02, 0., 0., 0., 0., 3.33333351e-02, 0., 0.,
          0., 0., 1.66666675e-02, 0., 0., 1.66666675e-02, 0., 0.,
          1.66666675e-02, 1.66666675e-02, 0., 0., 0., 0., 0., 0., 0., 0.,
          0., 6.66666701e-02, 0., 1.66666675e-02, 0., 0., 0., 0., 0., 0.,
          0., 0., 0., 0., 0., 0., 0., 0., 0., 0., 0., 0., 0., 0., 0., 0.,
          0., 0., 0., 0., 0., 0., 1.66666675e-02, 0., 0., 0., 0., 0.,
          1.66666675e-02, 0., 0., 1.66666675e-02, 0., 0., 0.,
          1.66666675e-02, 0., 0., 0., 0., 0., 0., 0., 0., 0., 0., 0., 0.,
          0., 1.66666675e-02, 0., 0., 0., 0., 0., 0., 0., 0., 0., 0., 0.,
          0., 1.66666675e-02, 0., 0., 0., 1.66666675e-02, 0., 0., 0., 0.,
          1.66666675e-02, 0., 0., 0., 0., 0., 0., 0., 0., 0., 0.,
          1.66666675e-02, 0., 0., 0., 0., 0., 0., 0., 0., 0., 0., 0., 0.,
          0., 0., 0., 0., 0., 0., 0., 1.66666675e-02, 0., 0., 0., 0., 0.,
          0., 1.66666675e-02, 0., 1.66666675e-02, 0., 0., 0., 0., 0., 0.,
          0., 0., 0., 0., 0., 0., 0., 0., 0., 0., 0., 0., 0., 0., 0., 0.,
          0., 0., 0., 0., 0., 0., 0., 0., 3.33333351e-02, 0., 0., 0., 0.,
          0., 0., 0., 0., 0., 0., 0., 0., 0., 1.66666675e-02, 0.,
          1.66666675e-02, 0., 0., 0., 0., 0., 0., 0., 0., 0., 0., 0.,
          1.66666675e-02, 0., 0., 0., 0., 0., 0., 0., 0., 0., 0., 0., 0.,
          0., 0., 0., 0., 0., 0., 0., 0., 0., 0., 0., 0., 0., 0., 0.,
          1.66666675e-02, 0., 0., 0., 0., 0., 0., 0., 0., 0.,
          3.33333351e-02, 0., 0., 0., 0., 0., 0., 0., 0., 0.,
          1.66666675e-02, 0., 0., 0., 0., 0., 0., 0., 0., 0., 0., 0., 0.,
          0., 0., 0., 0., 0., 0., 0., 1.66666675e-02, 0., 0., 0., 0., 0.,
          0., 0., 0., 0., 0., 0., 0., 0., 0., 1.66666675e-02, 0.,
          1.66666675e-02, 0., 0., 0., 0., 0., 0., 0., 0., 0., 0., 0.,
          1.66666675e-02, 0., 0., 0., 0., 0., 0., 0., 0., 0., 0., 0., 0.,
          0., 0., 0., 0., 1.66666675e-02, 0., 0., 0., 0., 0., 0., 0., 0.,
          0., 0., 0., 0., 0., 0., 0., 0., 0., 1.66666675e-02,
          1.66666675e-02, 1.66666675e-02, 0., 0., 1.66666675e-02, 0., 0.,
          1.66666675e-02, 0., 0., 1.66666675e-02, 0., 0., 0., 0., 0., 0.,
          0., 0. ]
      - [ 0., 0., 0., 0., 0., 0., 0., 0., 0., 0., 0., 0., 0., 0., 0., 0.,
          0., 0., 0., 0., 0., 0., 1.38888890e-02, 0., 0., 0., 0., 0., 0.,
          0., 0., 0., 0., 0., 0., 0., 0., 0., 0., 0., 0., 0., 0., 0., 0.,
          0., 0., 0., 0., 0., 0., 0., 1.38888890e-02, 0., 1.38888890e-02,
          0., 0., 0., 0., 0., 0., 1.38888890e-02, 0., 0., 0., 0.,
          1.38888890e-02, 0., 0., 0., 2.77777780e-02, 0., 0., 0.,
          1.38888890e-02, 0., 0., 0., 0., 0., 0., 0., 0., 0., 0., 0.,
          2.77777780e-02, 0., 0., 0., 0., 0., 1.38888890e-02, 0., 0., 0.,
          0., 0., 0., 1.38888890e-02, 0., 0., 0., 0., 0., 0.,
          1.38888890e-02, 0., 0., 0., 0., 0., 0., 0., 1.38888890e-02, 0.,
          0., 0., 0., 1.38888890e-02, 0., 0., 1.38888890e-02, 0., 0., 0.,
          0., 0., 0., 0., 0., 0., 0., 0., 0., 0., 0., 0., 0., 0., 0.,
          1.38888890e-02, 1.38888890e-02, 0., 0., 0., 0., 2.77777780e-02,
          0., 0., 1.38888890e-02, 0., 1.38888890e-02, 0., 0.,
          1.38888890e-02, 0., 1.38888890e-02, 1.38888890e-02, 0., 0., 0.,
          0., 0., 0., 0., 0., 0., 0., 1.38888890e-02, 0., 2.77777780e-02,
          0., 0., 0., 0., 0., 0., 0., 0., 0., 0., 1.38888890e-02, 0., 0.,
          0., 0., 0., 1.38888890e-02, 0., 0., 0., 0., 0., 0., 0., 0., 0.,
          0., 0., 1.38888890e-02, 0., 0., 0., 0., 1.38888890e-02,
          1.38888890e-02, 1.38888890e-02, 0., 1.38888890e-02, 0., 0., 0.,
          1.38888890e-02, 0., 0., 0., 0., 0., 0., 0., 0., 0., 0., 0., 0.,
          0., 2.77777780e-02, 0., 0., 0., 0., 0., 0., 0., 1.38888890e-02,
          0., 0., 0., 0., 2.77777780e-02, 1.38888890e-02, 0., 0., 0.,
          1.38888890e-02, 0., 1.38888890e-02, 0., 0., 0., 1.38888890e-02,
          0., 0., 0., 0., 0., 0., 0., 0., 0., 0., 0., 0., 0.,
          1.38888890e-02, 0., 0., 0., 0., 0., 0., 0., 0., 0., 0., 0., 0.,
          0., 1.38888890e-02, 1.38888890e-02, 0., 0., 0., 0., 0., 0., 0.,
          0., 2.77777780e-02, 0., 0., 0., 0., 0., 0., 0., 0., 0., 0., 0.,
          0., 0., 0., 0., 0., 0., 0., 0., 0., 1.38888890e-02, 0., 0., 0.,
          0., 0., 1.38888890e-02, 0., 0., 0., 1.38888890e-02, 0., 0., 0.,
          0., 0., 0., 0., 0., 1.38888890e-02, 0., 0., 0., 0.,
          1.38888890e-02, 0., 0., 0., 0., 0., 0., 0., 0., 0., 0.,
          4.16666679e-02, 0., 0., 1.38888890e-02, 0., 0., 0.,
          1.38888890e-02, 0., 0., 0., 0., 2.77777780e-02, 0., 0., 0., 0.,
          0., 0., 0., 0., 0., 0., 0., 0., 0., 0., 0., 0., 0., 0., 0., 0.,
          0., 0., 0., 0., 1.38888890e-02, 0., 0., 0., 0., 0., 0., 0., 0.,
          0., 0., 0., 0., 0., 0., 0., 0., 0., 0., 0., 0., 0.,
          1.38888890e-02, 0., 0., 1.38888890e-02, 0., 0., 0., 0., 0., 0.,
          0., 0., 1.38888890e-02, 0., 0., 0., 0., 0., 0., 0., 0., 0., 0.,
          0., 0., 0., 0., 0., 0., 1.38888890e-02, 0., 0., 0., 0., 0., 0.,
          0., 0., 0., 0., 0., 0., 0., 0., 0., 0., 0., 0., 0., 0., 0., 0.,
          0., 0., 0., 0., 0., 0., 1.38888890e-02, 0., 0., 0.,
          2.77777780e-02, 0., 0., 0., 0., 0., 0., 0., 0., 0., 0., 0., 0.,
          0., 0., 0., 1.38888890e-02, 0., 0., 1.38888890e-02, 0., 0., 0.,
          0., 0., 0., 0., 0., 0., 0., 0., 0., 0., 0. ]
   decision_functions:
      -
         sv_count: 10
         rho: 1.5210390090942383e-02
         alpha: [ 1., 1., 1., 1., 1., -1., -1., -1., -1., -1. ]
         index: [ 0, 1, 2, 3, 4, 5, 6, 7, 8, 9 ]
      -
         sv_count: 10
         rho: 3.0864477157592773e-03
         alpha: [ 1., 1., 1., 1., 1., -1., -1., -1., -1., -1. ]
         index: [ 0, 1, 2, 3, 4, 10, 11, 12, 13, 14 ]
      -
         sv_count: 10
         rho: 8.2697898149490356e-02
         alpha: [ 1., 1., 1., 1., 1., -1., -1., -1., -1., -1. ]
         index: [ 0, 1, 2, 3, 4, 15, 16, 17, 18, 19 ]
      -
         sv_count: 10
         rho: 9.1247260570526123e-03
         alpha: [ 1., 1., 1., 1., 1., -1., -1., -1., -1., -1. ]
         index: [ 5, 6, 7, 8, 9, 10, 11, 12, 13, 14 ]
      -
         sv_count: 10
         rho: 7.2273343801498413e-02
         alpha: [ 1., 1., 1., 1., 1., -1., -1., -1., -1., -1. ]
         index: [ 5, 6, 7, 8, 9, 15, 16, 17, 18, 19 ]
      -
         sv_count: 10
         rho: 5.0151377916336060e-02
         alpha: [ 1., 1., 1., 1., 1., -1., -1., -1., -1., -1. ]
         index: [ 10, 11, 12, 13, 14, 15, 16, 17, 18, 19 ]
